%YAML:1.0
---
opencv_ml_svm:
   format: 3
   svmType: C_SVC
   kernel:
      type: LINEAR
   C: 1.
   term_criteria: { epsilon:1.1920928955078125e-07, iterations:1000 }
   var_count: 50
   class_count: 43
   class_labels: !!opencv-matrix
      rows: 43
      cols: 1
      dt: i
      data: [ 0, 1, 2, 3, 4, 5, 6, 7, 8, 9, 10, 11, 12, 13, 14, 15, 16,
          17, 18, 19, 20, 21, 22, 23, 24, 25, 26, 27, 28, 29, 30, 31, 32,
          33, 34, 35, 36, 37, 38, 39, 40, 41, 42 ]
   sv_total: 903
   support_vectors:
      - [ 6.79302365e-02, -2.03178078e-02, -5.01468107e-02,
          7.45085552e-02, 2.04971120e-01, 5.20860404e-02, 2.24893577e-02,
          -1.01511061e-01, 1.25873491e-01, 1.23630427e-01,
          -1.79576185e-02, -2.75166798e-02, 1.50177151e-01,
          -3.55093814e-02, 8.64091143e-02, 2.83592138e-02,
          -1.22890279e-01, 1.82044059e-02, -4.87781055e-02,
          -8.56793299e-02, 1.15523003e-01, -4.59361188e-02,
          -5.77145489e-03, -2.86303192e-01, 7.81943426e-02,
          5.88489249e-02, 7.13573992e-02, -1.49716556e-01,
          7.74240568e-02, -2.34671831e-01, -1.03285111e-01,
          9.35854539e-02, 1.01978324e-01, 6.55842572e-02, 3.84615473e-02,
          -8.68982151e-02, 1.04852214e-01, -1.30520970e-01,
          5.99072240e-02, -6.82196720e-03, -1.99282840e-02,
          7.78416693e-02, 2.33126879e-01, -8.47856551e-02,
          1.30609632e-01, 9.04180631e-02, 5.10810837e-02,
          -2.67256014e-02, -6.88983500e-02, -5.11227101e-02 ]
      - [ 1.40517741e-01, 1.23942062e-01, -1.13556579e-01,
          -4.98754904e-02, 1.99798256e-01, 7.24469200e-02,
          -6.58619553e-02, -9.09591988e-02, 1.48748964e-01,
          -6.77579790e-02, 1.85458884e-02, -8.94782618e-02,
          7.50231370e-02, -4.97966632e-02, 7.57210329e-02,
          -1.63129151e-01, 1.36510894e-01, 1.23447835e-01,
          -1.07918017e-01, -7.89348185e-02, -1.00352801e-02,
          -8.75214785e-02, 1.90681219e-01, -2.31673315e-01,
          -2.94214003e-02, 9.37006399e-02, -6.71429513e-03,
          -3.91469449e-01, -3.01970262e-02, 1.08736213e-02,
          -2.10892223e-02, 3.26320343e-02, -1.53637156e-01,
          -9.20322165e-02, 2.91050561e-02, -7.81743079e-02,
          1.07427379e-02, -2.51654685e-01, 1.73120443e-02,
          4.56034727e-02, -2.79912222e-02, 6.19768491e-03,
          2.56347477e-01, 6.04220405e-02, 2.29742691e-01,
          -1.04025155e-02, 2.70007551e-02, -1.46261498e-01,
          1.29154464e-02, -1.38124138e-01 ]
      - [ 1.05583213e-01, -1.32735640e-01, -1.45833030e-01,
          7.54088387e-02, 1.23383932e-01, -3.42759416e-02,
          -7.83876777e-02, 3.30619998e-02, -1.73990410e-02,
          -6.14441074e-02, 2.23357063e-02, 2.75815018e-02,
          -6.85407072e-02, -8.21857750e-02, 3.92613485e-02,
          -4.61735278e-02, 6.10546507e-02, 2.58312598e-02,
          -5.75843193e-02, 1.65287368e-02, 7.08997175e-02,
          6.57295241e-05, 8.58741030e-02, -1.91630527e-01,
          -2.23399252e-02, -4.42284457e-02, 5.65941222e-02,
          -1.00580584e-02, 5.60779870e-02, -4.64624725e-02,
          -4.27869009e-03, 1.00856416e-01, 2.27435045e-02,
          -1.24836266e-01, 3.12319379e-02, 1.34397345e-02,
          -4.79000770e-02, -1.05518579e-01, 1.27322778e-01,
          6.10654391e-02, 3.01317638e-03, -1.93773881e-02,
          4.27666605e-02, 7.98836350e-02, 2.71679554e-02,
          -1.19915508e-01, 2.01931670e-01, -9.33663771e-02,
          9.93735790e-02, -8.88565704e-02 ]
      - [ 8.67085382e-02, -1.17399454e-01, -2.91710883e-01,
          1.16114706e-01, -1.12791909e-02, 1.51121706e-01,
          3.97091471e-02, 2.84628458e-02, -5.14881983e-02,
          8.20368826e-02, 4.57139276e-02, -1.16376802e-01,
          -1.15255691e-01, -1.79565907e-01, 2.20732316e-02,
          -1.33620858e-01, 8.78968462e-02, 6.82751834e-02,
          2.49220598e-02, 4.71683219e-02, -1.43859815e-03,
          -8.04271400e-02, 2.52280552e-02, -2.41223514e-01,
          1.45142972e-01, -1.02805160e-01, -4.89054695e-02,
          -1.04896575e-01, 8.53076205e-02, -1.05580114e-01,
          -4.09703068e-02, 2.12873369e-02, 3.72738242e-02,
          -5.89328073e-02, -3.67087796e-02, 9.27051753e-02,
          1.37929216e-01, -1.98360875e-01, 1.36195213e-01,
          3.81555744e-02, -3.59800979e-02, 7.49923009e-03,
          8.53566229e-02, -3.96544673e-02, 2.99226999e-01,
          -1.50859775e-02, 2.81318724e-01, -3.10906708e-01,
          6.42395243e-02, 6.42923266e-02 ]
      - [ 1.49462968e-01, -2.66160518e-02, -2.44343042e-01,
          1.52056053e-01, 1.60966635e-01, -6.84296340e-02,
          7.69949779e-02, -7.93329626e-03, 1.70815028e-02,
          8.94453302e-02, -9.96404886e-03, -1.43872827e-01,
          8.41206592e-03, -3.09140086e-01, 6.72660843e-02,
          -1.61812119e-02, -7.25086629e-02, 8.22031274e-02,
          5.33498265e-02, -3.44592743e-02, 3.05870503e-01,
          -5.67164682e-02, -8.19574296e-02, -2.18363956e-01,
          4.67188880e-02, -1.17084116e-01, 2.40677912e-02,
          -3.80922034e-02, -8.26729536e-02, -1.60660848e-01,
          6.00976124e-02, 3.64200510e-02, 1.30831907e-02,
          -5.02918288e-02, 1.08235195e-01, 1.29296511e-01,
          7.25546433e-03, -1.91577658e-01, 1.13508869e-02,
          1.13568485e-01, -2.68352713e-04, 9.35590174e-03,
          6.72060028e-02, 2.50716060e-02, -1.52543500e-01,
          -2.27240380e-02, -2.69433875e-02, 6.03832155e-02,
          1.02973759e-01, -1.79800585e-01 ]
      - [ -4.06899005e-02, -2.95124978e-01, 1.21035641e-02,
          1.03352129e-01, 3.49998437e-02, 1.31621808e-01, 9.55166221e-02,
          -5.10085039e-02, 6.57527149e-02, 1.49672836e-01,
          8.10476020e-02, 2.42032707e-01, 2.66399775e-02,
          -4.08453614e-01, 1.05725154e-01, -1.30896196e-02,
          -1.60920024e-01, 1.05150260e-01, 6.23820052e-02,
          2.29338810e-01, 9.17469114e-02, -9.06932727e-02,
          8.53314064e-03, -1.75669894e-01, 1.09585300e-01,
          -1.09690242e-01, 6.46814704e-03, -2.89971959e-02,
          3.61650512e-02, -1.80819944e-01, -1.68015420e-01,
          1.51964992e-01, -8.16365555e-02, 1.32185500e-02,
          -5.61671518e-02, 1.40668154e-01, -3.60895395e-02,
          -2.57543504e-01, 2.94029043e-04, 1.15671270e-02,
          -2.31118090e-02, 1.07575804e-01, 1.28827497e-01,
          1.48227096e-01, -5.32582626e-02, 2.12154761e-01,
          -1.96945548e-01, -3.54764789e-01, 1.04413949e-01,
          1.42311245e-01 ]
      - [ 1.57105714e-01, 6.21718168e-02, -2.51560718e-01,
          7.11541697e-02, 1.44039363e-01, 4.49086688e-02, 5.49255386e-02,
          8.64034966e-02, 2.49567702e-02, 6.73804358e-02, 5.17121777e-02,
          -1.10045984e-01, -1.16811348e-02, 2.69629750e-02,
          -7.09808320e-02, -4.58744913e-02, -5.20373099e-02,
          5.39761893e-02, 3.21989283e-02, -1.11134294e-02,
          1.88384745e-02, 3.67542021e-02, -1.72080547e-02,
          -3.34483504e-01, 3.54215391e-02, -5.68467155e-02,
          -7.21391663e-02, -1.50224596e-01, 1.67118564e-01,
          1.67170286e-01, -7.23491758e-02, -8.66141915e-02,
          1.00761339e-01, -2.73864537e-01, 1.03170262e-03,
          -6.80544749e-02, 9.37038809e-02, -3.39921355e-01,
          5.68414219e-02, 5.10302885e-03, -1.51464995e-02,
          -2.31136046e-02, -8.53092447e-02, 4.24196990e-03,
          1.06702544e-01, 1.95653081e-01, 9.84548032e-02,
          -1.23551168e-01, 2.40457412e-02, -5.84645309e-02 ]
      - [ 1.12276310e-02, 2.26694625e-02, -2.45313376e-01,
          6.52598962e-02, 3.17577392e-01, -5.96726425e-02,
          -7.09467456e-02, -3.42925452e-02, 2.48100311e-02,
          4.20710921e-01, 1.11426704e-01, -1.43189222e-01,
          -6.47890661e-03, 8.50399211e-02, 5.69817517e-03,
          2.09101602e-01, -1.11058585e-01, 7.94968940e-03,
          6.99223280e-02, 7.11167008e-02, 1.25924945e-01, 6.76995367e-02,
          -1.74061224e-01, -2.61431426e-01, -7.37260357e-02,
          -1.38853744e-01, 5.01479954e-02, -2.16753781e-01,
          -1.52832806e-01, -3.06338556e-02, 7.98767656e-02,
          1.00820966e-01, 3.93739194e-02, -3.31851065e-01,
          1.67683121e-02, -3.17306928e-02, 2.19223425e-01,
          -1.36981890e-01, -7.83651099e-02, 2.25639880e-01,
          -3.86006013e-02, 2.38546357e-02, 3.80661502e-03,
          -1.01651393e-01, -1.11040220e-01, 4.81780395e-02,
          1.74207147e-02, -6.42383620e-02, 5.17177805e-02,
          5.90606295e-02 ]
      - [ 1.12041220e-01, -9.41411182e-02, -1.77548602e-01,
          -2.50264164e-02, 3.06381673e-01, 2.40488261e-01,
          -1.17227703e-01, -1.76007878e-02, 1.10935636e-01,
          1.59471840e-01, -5.25265783e-02, 6.75573722e-02,
          2.96009779e-02, -5.23853749e-02, -4.25141230e-02,
          -1.74071893e-01, 3.85787897e-02, 2.07131822e-02,
          -1.07269362e-01, -7.51714334e-02, 1.09528974e-01,
          1.83476299e-01, -3.41408001e-03, -4.18775618e-01,
          9.50120240e-02, 7.04476461e-02, 2.62409359e-01,
          -3.81665915e-01, 2.32795794e-02, -2.24682838e-01,
          -5.48987873e-02, -1.87879475e-03, 8.19042511e-03,
          -2.66157895e-01, -1.45652831e-01, -8.73365924e-02,
          1.28845781e-01, -3.31586897e-01, 2.50936151e-01,
          1.45968705e-01, -3.97581831e-02, -4.51149493e-02,
          6.76565692e-02, 1.20856687e-01, 3.75164971e-02,
          -2.33122464e-02, 4.83939946e-02, -7.97527377e-03,
          3.50790583e-02, 8.52738172e-02 ]
      - [ 6.41084686e-02, -9.31919441e-02, -1.90245524e-01,
          1.54749900e-01, 1.33518264e-01, -5.57234399e-02,
          -1.19012341e-01, 6.52106404e-02, -9.28080678e-02,
          1.18579283e-01, -6.86008036e-02, -7.78919533e-02,
          1.40546039e-02, -6.84198588e-02, -3.13350670e-02,
          7.31165707e-02, 1.35687754e-01, -2.31531244e-02,
          2.04169005e-01, 3.68551537e-02, 1.64869919e-01, 3.39445919e-02,
          -2.97525637e-02, -1.95935875e-01, 1.00616485e-01,
          2.41529085e-02, -1.13381118e-01, -1.85502186e-01,
          2.62248307e-01, -5.33390082e-02, 9.63466465e-02,
          -1.18035264e-01, 1.61362588e-01, -3.49746794e-01,
          4.23658267e-02, 2.41592944e-01, 1.10524055e-02,
          -3.79095495e-01, 1.51143029e-01, -1.41626164e-01,
          -1.77173503e-03, -1.27313863e-02, -5.01719303e-02,
          -4.56003509e-02, 2.87858266e-02, -8.09149072e-02,
          1.42402038e-01, 6.62835836e-02, 1.26608796e-02,
          -6.69752508e-02 ]
      - [ -3.86434607e-02, -5.20448573e-02, -2.43489057e-01,
          -9.31876153e-02, 3.17239821e-01, -2.93883719e-02,
          -1.47568971e-01, 1.64059494e-02, 9.82241705e-02,
          -1.52114004e-01, -1.49657592e-01, 6.35885820e-02,
          1.57451481e-01, -7.22487792e-02, 1.47556692e-01,
          8.86962712e-02, 2.29469463e-01, 3.71381268e-02,
          -1.29673854e-01, -1.46126330e-01, -9.03920159e-02,
          3.97246033e-02, 2.60886043e-01, -6.36095405e-01,
          6.59499019e-02, -2.38385618e-01, 1.41629085e-01,
          -3.36681873e-01, 9.84314978e-02, -7.81014189e-02,
          5.81078939e-02, -1.14105105e-01, -1.16779730e-02,
          -1.29636914e-01, -1.70626715e-02, 5.10108881e-02,
          -1.30209848e-01, -2.31223509e-01, 2.97670513e-01,
          -5.76341711e-02, -8.65075644e-03, -2.36567110e-01,
          -1.54396370e-01, 5.07266819e-02, 1.60127148e-01,
          3.75545621e-02, 1.92885533e-01, 1.18652433e-01, 2.20340669e-01,
          -6.68340772e-02 ]
      - [ 2.12794080e-01, -1.59233004e-01, -1.16313405e-01,
          1.71320029e-02, 1.01866201e-01, 1.95677429e-01, 1.63239211e-01,
          -4.86383960e-02, 1.23672909e-03, -2.80199617e-01,
          5.29447794e-02, -1.01181164e-01, 2.80683096e-02,
          -7.15637654e-02, -2.85000652e-02, -1.74312487e-01,
          2.34551489e-01, 4.79853600e-02, -2.40603164e-02,
          7.50424340e-02, 1.23110883e-01, -1.17566600e-01,
          1.55534089e-01, -2.60293990e-01, 1.34778693e-01,
          -5.06120101e-02, -9.35260579e-02, -1.18274815e-01,
          1.10998601e-01, -1.65683515e-02, 1.12675272e-01,
          -1.35292843e-01, 9.69264284e-02, -1.86707899e-01,
          -1.45606488e-01, 2.82501220e-03, 5.41497348e-03,
          -4.02782768e-01, 1.74142018e-01, 2.09547400e-01,
          1.40762058e-04, -2.93252885e-01, 1.63243622e-01,
          3.55026163e-02, 2.80304790e-01, -1.49555460e-01,
          4.50565398e-01, -1.02773979e-01, -1.92002561e-02,
          1.64770871e-01 ]
      - [ 9.05209128e-03, 2.91589871e-02, -9.62057784e-02,
          6.11174526e-03, 9.38507020e-02, -1.92300640e-02,
          -2.52808213e-01, -5.98272420e-02, 6.14781911e-03,
          8.12067091e-03, -7.81595856e-02, 4.47244160e-02,
          -7.42767081e-02, -1.41586781e-01, 4.33264971e-01,
          2.91801319e-02, -7.45379776e-02, -1.80528108e-02,
          3.28943841e-02, -8.32416955e-03, 9.16172862e-02,
          6.41248971e-02, 9.40558314e-02, -1.74482539e-01,
          5.56933656e-02, -9.40587148e-02, -9.61475149e-02,
          -5.50317466e-02, 6.72503114e-02, -5.42249531e-02,
          6.15485832e-02, 3.46534364e-02, 8.69324580e-02,
          -2.30900906e-02, 9.94346992e-05, 2.21012309e-02,
          1.18585736e-01, -6.17795363e-02, 4.19246871e-03,
          -5.71929365e-02, -7.43222190e-03, 2.99323555e-02,
          -8.59876424e-02, 1.07532695e-01, 6.44586682e-02,
          -1.26460064e-02, 2.02083942e-02, -1.67843670e-01,
          1.46746123e-03, -6.56137392e-02 ]
      - [ 9.94005352e-02, 8.47650245e-02, -1.29159018e-01,
          1.26361564e-01, 2.36345693e-01, 7.08862618e-02,
          -1.36475235e-01, 1.17832556e-01, -8.38755742e-02,
          -5.71116842e-02, -1.25640571e-01, 4.03416492e-02,
          -6.88931271e-02, -1.12792887e-01, 1.28421113e-01,
          -4.57778526e-03, 1.24925576e-01, -5.29308319e-02,
          2.79790685e-02, -8.99884626e-02, 1.95063978e-01,
          1.53860286e-01, 1.03596868e-02, -1.42655194e-01,
          6.76569566e-02, 7.13293701e-02, -2.24948123e-01,
          -1.28288478e-01, 6.23271763e-02, -2.54284125e-02,
          7.74788260e-02, -1.06172770e-01, 1.64542064e-01,
          -6.96232170e-02, 7.24734068e-02, -4.80311327e-02,
          2.60879751e-03, -1.42900363e-01, -5.63955214e-03,
          1.32911921e-01, 6.33867551e-03, -9.64503512e-02,
          5.20716161e-02, 9.58016738e-02, -4.89240140e-02,
          -1.02761433e-01, 1.46175802e-01, -8.15306529e-02,
          7.38647208e-02, -7.56278262e-02 ]
      - [ 5.03047556e-03, 8.47586319e-02, -1.60534859e-01,
          9.94319245e-02, 1.51939377e-01, 1.93893705e-02,
          -4.30993401e-02, 3.73304728e-03, 1.05592050e-02,
          -1.01609016e-02, -3.83116454e-02, 1.08928382e-01,
          -4.70116846e-02, -4.66041714e-02, -4.94978279e-02,
          -1.03697225e-01, -8.10509026e-02, -8.92990828e-02,
          -2.19808184e-02, -2.68739928e-02, -3.34081426e-02,
          1.54628474e-02, -3.24441828e-02, -1.21913984e-01,
          -4.43143845e-02, -1.65714815e-01, -1.58904031e-01,
          -2.12421715e-01, 1.06225707e-01, -8.96788687e-02,
          -6.02017082e-02, -9.06900764e-02, 9.78635252e-02,
          -1.11914575e-01, 2.06171740e-02, -8.12326930e-03,
          1.03493750e-01, -2.52428710e-01, -1.30304601e-02,
          1.74983330e-02, -2.90055443e-02, 2.11643185e-02,
          -6.36056438e-02, 2.95565929e-02, -3.58804278e-02,
          7.76547566e-02, -3.91820557e-02, -3.38966586e-02,
          1.35397008e-02, -6.80750906e-02 ]
      - [ 5.85469715e-02, -6.11458719e-02, -1.83657125e-01,
          1.26073152e-01, 7.92215317e-02, 1.15918927e-01, 8.44964311e-02,
          2.84522232e-02, -3.69363208e-03, 3.20696980e-02,
          5.32940812e-02, -7.99147412e-02, -1.20792389e-01,
          -7.50323087e-02, 1.14901014e-01, 6.69794232e-02,
          1.45404980e-01, 8.75936747e-02, -3.07059400e-02,
          1.46877915e-01, 1.24995150e-01, -7.41888061e-02,
          -5.32304263e-03, -9.16069448e-02, 7.13845668e-03,
          -1.37300402e-01, -4.15324122e-02, -7.36992285e-02,
          8.30847584e-03, -1.60300615e-03, 7.96571299e-02,
          -3.43408063e-02, -6.07781447e-02, -2.19727010e-01,
          -8.62279325e-04, 2.93969400e-02, 4.49338965e-02,
          -1.44676805e-01, 9.37109813e-03, 1.08400825e-02,
          -2.24149283e-02, -4.30727974e-02, -3.09959091e-02,
          3.60268503e-02, -8.46130848e-02, -6.06895052e-02,
          7.48914927e-02, -9.82899815e-02, 6.34299591e-02,
          7.99787268e-02 ]
      - [ 6.92067146e-02, -5.81848361e-02, -1.16942517e-01,
          -9.66575556e-03, -1.56482961e-02, 6.11633388e-03,
          -4.81374152e-02, -2.02614274e-02, -1.18392389e-02,
          4.52982746e-02, 1.12454817e-01, 2.04128288e-02,
          -1.64041761e-02, 1.02878742e-01, -7.87338763e-02,
          1.80495605e-01, 2.45749056e-02, 8.70670844e-03, 5.91908535e-03,
          -4.21243533e-02, -6.28958046e-02, -1.25256419e-01,
          -1.67107545e-02, -1.90599039e-01, -8.35431367e-03,
          -6.53416142e-02, -4.70785424e-02, 8.22979491e-03,
          5.45575693e-02, -1.24256557e-03, -5.59941716e-02,
          -6.30593225e-02, 1.18320093e-01, -1.10212207e-01,
          3.31055699e-03, 1.02592848e-01, 5.69339246e-02,
          -9.59816128e-02, 9.44938809e-02, -2.98435651e-02,
          -5.35655161e-03, -1.10339686e-01, -1.17682949e-01,
          -2.24967673e-02, 2.35092103e-01, 2.57548898e-01,
          9.52501670e-02, -7.22605214e-02, -8.12009126e-02,
          1.56724200e-01 ]
      - [ 3.81425396e-02, -5.61127923e-02, 1.37344152e-01,
          1.59266815e-01, 1.21733293e-01, 6.28274307e-02, 7.92247429e-02,
          3.75669636e-02, 5.29574081e-02, -6.92185313e-02,
          -1.52179245e-02, 1.05946571e-01, -5.11401854e-02,
          -9.13331937e-03, 9.55875143e-02, 1.38038889e-01,
          -1.99262630e-02, -8.22721422e-02, 4.90198433e-02,
          2.82832179e-02, 1.63584679e-01, -1.11194208e-01,
          4.42183344e-03, -2.66269624e-01, 1.47449747e-01,
          -1.54621795e-01, -1.78577363e-01, -1.96368188e-01,
          2.25000277e-01, 1.00533910e-01, -3.01085711e-02,
          -1.56991228e-01, 1.12577669e-01, -5.02917618e-02,
          -8.79497975e-02, -5.85069880e-02, 9.05868709e-02,
          -1.50117442e-01, 9.41525474e-02, -1.41457781e-01,
          -5.90610597e-03, -5.18387519e-02, -4.45786044e-02,
          1.19885519e-01, 1.15570575e-01, -7.08807912e-03,
          4.76504043e-02, -8.44750367e-03, -1.26133300e-02,
          2.47092843e-02 ]
      - [ 4.28881682e-02, -1.45262228e-02, -1.87430844e-01,
          4.39433232e-02, 1.56614408e-01, 6.26693014e-03,
          -3.20866471e-03, 4.04302077e-03, 5.07003777e-02,
          3.83544751e-02, -6.11559302e-02, -3.78499366e-02,
          -2.89503112e-02, -6.83836788e-02, 3.73106673e-02,
          4.61667851e-02, -4.80022877e-02, 1.94531102e-02,
          -2.92714313e-02, -2.93513611e-02, 3.93766686e-02,
          -2.45928727e-02, -5.65669909e-02, -3.71073149e-02,
          -6.36010477e-03, -1.19471952e-01, -1.43199647e-02,
          -9.97181088e-02, 3.62875983e-02, -9.20311138e-02,
          -7.51823373e-03, -5.04271835e-02, -2.59716436e-02,
          -1.02682143e-01, 8.29632655e-02, -2.70715170e-02,
          1.11413740e-01, -7.88187832e-02, 6.70419931e-02,
          1.04428403e-01, 4.51751500e-02, -8.60020518e-02,
          -3.33399177e-02, -5.73096722e-02, 2.21943799e-02,
          1.43680647e-01, -6.46305010e-02, -4.24736515e-02,
          -2.38290466e-02, -2.87673585e-02 ]
      - [ 6.41054139e-02, 3.96154486e-02, -1.78652629e-01,
          1.09961741e-01, 1.68687388e-01, -2.97793746e-02,
          -1.20637693e-01, 9.63359401e-02, -1.28058434e-01,
          -4.86748591e-02, -2.34869365e-02, -4.53858040e-02,
          1.15170643e-01, -1.59845129e-02, -1.99456643e-02,
          -8.12275242e-03, -7.66622275e-02, 3.67228687e-02,
          -1.06490262e-01, 3.85105796e-02, 8.88221934e-02,
          -5.98670356e-02, 1.08550154e-02, -1.58127159e-01,
          2.16278017e-01, -5.41647524e-02, 3.60024087e-02,
          1.17064364e-01, 4.30460759e-02, -5.06961532e-02,
          -5.43709546e-02, 2.25009117e-02, 1.20536365e-01,
          -1.76874902e-02, 8.52799565e-02, 7.79702738e-02,
          1.42602175e-02, -4.34169210e-02, -5.41064888e-02,
          8.31016004e-02, 2.08239537e-02, -6.54908046e-02,
          2.38172784e-02, 5.14959060e-02, -2.55752467e-02,
          1.24562234e-01, 2.50595331e-01, -2.60269716e-02,
          7.22777620e-02, 1.52493626e-01 ]
      - [ -2.85411961e-02, -1.15582137e-03, -7.25802556e-02,
          1.15888335e-01, 3.08073640e-01, 1.06221162e-01, 2.35715006e-02,
          -3.74847576e-02, -4.80246134e-02, -7.75225759e-02,
          9.48778018e-02, 5.58190569e-02, -3.16830426e-02,
          -3.36577475e-01, 7.34302402e-02, 5.38213411e-03,
          1.26901502e-02, 5.29047996e-02, -1.65271517e-02,
          1.18441517e-02, -5.19441627e-02, -4.24683690e-02,
          -9.74257663e-02, -1.57471880e-01, -3.04077044e-02,
          -3.90749186e-01, -2.25836178e-03, -4.56658006e-01,
          7.61783421e-02, -1.22688293e-01, 8.38533342e-02,
          -1.38351098e-01, -8.42148215e-02, -1.27716944e-01,
          -8.76272321e-02, -2.34861914e-02, 9.13914293e-02,
          -2.64997840e-01, 2.46716123e-02, -1.65913738e-02,
          -6.38524219e-02, -1.61828086e-01, 4.10677381e-02,
          -3.91270667e-02, -1.54758975e-01, -1.62245277e-02,
          2.10339837e-02, -2.22052544e-01, 1.33197844e-01,
          7.03324703e-03 ]
      - [ -1.49800712e-02, -9.01850834e-02, -2.54449517e-01,
          1.70914046e-02, 3.20278481e-02, 2.03031693e-02, 1.77876994e-01,
          2.63725430e-01, -1.12307556e-02, 7.50180632e-02,
          6.82951733e-02, -1.37319595e-01, -2.91694045e-01,
          1.04798153e-02, 1.84510618e-01, 2.12971959e-02,
          -5.48600033e-02, 2.87697408e-02, -1.05672227e-02,
          4.98600528e-02, -3.32675651e-02, 2.82396793e-01,
          -1.29413605e-01, -2.87270337e-01, 1.67057753e-01,
          -1.97240323e-01, -5.89652061e-02, -1.66349649e-01,
          5.76301366e-02, 7.08223656e-02, -3.34706083e-02,
          7.53438380e-03, -4.99983132e-02, -2.41235673e-01,
          -6.84657469e-02, -9.41262990e-02, 3.97073001e-01,
          -5.39109468e-01, 2.90897399e-01, -1.11698672e-01,
          -1.74779426e-02, -1.60113871e-02, 1.03174672e-01,
          -3.35956104e-02, 5.19972891e-02, -3.61771025e-02,
          1.72756582e-01, -1.18041970e-01, -8.12311023e-02,
          9.41241458e-02 ]
      - [ -4.82069701e-02, -1.51225924e-01, -2.97096878e-01,
          2.21077446e-02, 2.19803095e-01, 4.85564210e-02,
          -2.95855552e-01, -2.12715124e-03, 1.09202094e-01,
          1.62667017e-02, -1.13349356e-01, -5.77779077e-02,
          -1.06951170e-01, -1.76768407e-01, 3.21976915e-02,
          -2.19090596e-01, -5.88818192e-02, -4.55326512e-02,
          1.17492825e-02, -8.16695169e-02, -9.33500454e-02,
          -5.12729632e-03, -1.39223382e-01, -4.05243963e-01,
          -1.31014541e-01, -2.55126268e-01, -1.16180852e-01,
          -1.06081001e-01, 1.20051615e-01, -3.46502215e-01,
          -1.07454516e-01, -9.26222950e-02, 4.60568443e-02,
          -1.42551661e-02, -5.40329106e-02, -2.81936000e-03,
          -5.91134541e-02, -3.72947156e-01, -6.89824447e-02,
          5.14836535e-02, -8.24592635e-02, 1.21637255e-01,
          -1.49718761e-01, 1.46669932e-02, -2.53750570e-02,
          1.02241434e-01, 1.17477946e-01, -9.99150798e-02,
          1.84532657e-01, -4.02861655e-01 ]
      - [ 1.44146189e-01, 1.63857359e-02, -2.39794999e-01,
          -9.81786475e-02, 2.38499030e-01, -1.42332748e-01,
          -3.73198509e-01, 1.70893478e-03, -1.49772063e-01,
          -6.11269511e-02, -4.85320874e-02, 4.20462012e-01,
          -1.86919689e-01, -1.04678273e-01, 8.10195878e-03,
          4.20074239e-02, -4.90670539e-02, -1.02101825e-01,
          -5.67631572e-02, -1.84963524e-01, -6.22092821e-02,
          -2.95703262e-02, 9.28875431e-02, -3.96800369e-01,
          -8.32469389e-02, -1.98005974e-01, -1.00560039e-01,
          -5.12231812e-02, 3.23974043e-02, -6.68381080e-02,
          -5.63952699e-02, -8.15697685e-02, 1.18050165e-01,
          -1.93408862e-01, 6.68253154e-02, -1.36705518e-01,
          1.27936959e-01, -2.74263173e-01, -3.78598534e-02,
          2.25330926e-02, -2.68131252e-02, -9.35557261e-02,
          -7.12046772e-02, -4.11234684e-02, -1.09201282e-01,
          1.48054004e-01, 8.87370706e-02, -4.64056656e-02,
          3.65510970e-01, -4.03789571e-03 ]
      - [ 2.27898359e-02, -3.86921852e-03, -2.40768477e-01,
          1.73112392e-01, 1.44437075e-01, 1.39695749e-01,
          -2.28500202e-01, 1.08319141e-01, -8.07399601e-02,
          4.35129881e-01, 1.61220506e-02, 6.08700588e-02,
          -3.29185016e-02, -2.31916398e-01, -7.74904042e-02,
          -7.07509071e-02, -1.51557401e-01, 2.88069025e-02,
          -5.72930686e-02, 1.05296813e-01, 1.40714809e-01,
          -1.69972301e-01, -6.06677942e-02, -4.67631102e-01,
          4.82803918e-02, -1.98679537e-01, -4.31482084e-02,
          -1.43607467e-01, 6.22152463e-02, 3.19811702e-02,
          -1.75638556e-01, 1.32096503e-02, 4.87085246e-02,
          -3.43082428e-01, 2.17424873e-02, 1.18650705e-01,
          7.85429999e-02, 4.26531862e-03, 3.85433366e-03, 4.06300724e-02,
          -4.04095836e-02, 1.91501819e-03, -3.83908264e-02,
          2.26056218e-01, 1.23451464e-01, 1.79272577e-01, 9.59977582e-02,
          -1.36705190e-01, 1.15873076e-01, 1.90664977e-01 ]
      - [ 1.43842176e-02, -1.52266517e-01, -2.26064086e-01,
          -2.65360363e-02, 4.20991741e-02, 4.94863801e-02,
          -1.35141477e-01, -3.63626033e-02, -8.41899142e-02,
          1.48008317e-01, 5.49550615e-02, 3.86003777e-02,
          -1.49169728e-01, -6.85140714e-02, 4.55652848e-02,
          8.36650208e-02, -7.55836964e-02, 6.03763312e-02,
          1.97497979e-01, 9.69624519e-02, 2.25463927e-01, 2.41408572e-01,
          -2.19688397e-02, -2.23964691e-01, 1.28546417e-01,
          -6.70734420e-02, -1.08252428e-01, 8.95511881e-02,
          1.77244529e-01, 9.73976851e-02, 3.81434672e-02, 9.95710045e-02,
          5.62295690e-03, -1.69770300e-01, -3.15848477e-02,
          -1.30770817e-01, 2.18738273e-01, -1.79131269e-01,
          2.27322392e-02, -2.39075199e-02, -3.01909596e-02,
          -8.60780180e-02, -1.60880446e-01, -2.05810815e-02,
          1.34524750e-02, 1.47418007e-01, 1.84152611e-02,
          -7.49071613e-02, 7.56371692e-02, -2.60613382e-01 ]
      - [ 1.07993022e-01, -5.50244711e-02, -7.59960711e-02,
          3.18703175e-01, 3.42310786e-01, -1.63664389e-02,
          -9.47059020e-02, 2.85414420e-02, -1.57092333e-01,
          -9.84385535e-02, 1.14290304e-02, -9.89079848e-02,
          -1.55925810e-01, -3.67497295e-01, 1.20464116e-01,
          1.34649992e-01, -6.56337216e-02, 1.70192093e-01,
          2.03662187e-01, -5.05819023e-02, 1.27355695e-01,
          -2.62571692e-01, 6.46211058e-02, -3.76936853e-01,
          5.83837926e-03, -2.38527611e-01, -1.50529042e-01,
          -1.46826208e-01, -7.51419365e-02, -2.98790812e-01,
          2.99962405e-02, -1.08441107e-01, 5.93205914e-02,
          -2.04473361e-01, -3.16674658e-03, 2.03416869e-01,
          1.55987099e-01, -1.79636747e-01, -3.36835273e-02,
          1.22462943e-01, -2.20601093e-02, -3.78735997e-02,
          1.79190218e-01, -1.28578702e-02, -8.22404474e-02,
          -9.23699662e-02, 9.92114246e-02, -2.37775356e-01,
          -5.99988643e-03, 3.30121011e-01 ]
      - [ 1.30918538e-02, -1.21099934e-01, 7.89848343e-02,
          1.64853901e-01, -6.92849327e-03, -1.11564644e-01,
          4.86943200e-02, -1.15558263e-02, -8.36674348e-02,
          1.59176007e-01, 3.46379764e-02, -7.18003735e-02,
          -9.22550708e-02, -8.27005059e-02, -4.17324118e-02,
          -4.26442027e-02, -1.05486497e-01, -3.24416645e-02,
          7.64184892e-02, -6.11998290e-02, 1.24330811e-01,
          3.04749934e-03, -1.10197105e-01, -3.25359941e-01,
          1.43167347e-01, -1.36610523e-01, -5.30203106e-04,
          -5.44477440e-02, -6.05113022e-02, -3.99189517e-02,
          3.71728442e-03, -9.15062651e-02, 1.08098708e-01,
          5.63203469e-02, 2.68681109e-01, -1.09502468e-02,
          5.94094060e-02, -2.20929459e-01, -5.29145151e-02,
          -7.71543011e-02, -3.19820605e-02, -5.89896888e-02,
          -2.23527271e-02, 5.11246696e-02, -1.06764540e-01,
          4.57440093e-02, -1.13393068e-01, -6.46891370e-02,
          9.63647068e-02, -1.80522259e-02 ]
      - [ 3.61111648e-02, -3.86409648e-02, -7.39514455e-02,
          -7.62237888e-03, 1.80499390e-01, -2.78112907e-02,
          -8.29065964e-02, 3.82380630e-03, 3.05633107e-03,
          8.20687786e-02, -3.50124910e-02, 3.87203251e-03,
          -4.01192494e-02, -9.61135477e-02, 9.58269760e-02,
          3.47564518e-02, 2.23603800e-01, 4.59980927e-02,
          -4.81100790e-02, 1.10914670e-02, 6.52645752e-02,
          -1.33037632e-02, -2.74296086e-02, -1.42363355e-01,
          4.84514534e-02, 1.84448436e-02, -4.00477089e-02,
          9.54960845e-03, -1.98476628e-04, 9.95425321e-03,
          4.51797433e-02, -1.40774949e-02, -1.11897034e-03,
          -6.97978064e-02, 6.32947758e-02, -7.65214267e-04,
          9.18219760e-02, -9.00959000e-02, 3.68193798e-02,
          6.58583222e-03, 5.66576957e-04, -8.06029290e-02,
          1.05318055e-02, 4.63366248e-02, -5.70794418e-02,
          -5.78469373e-02, 4.82574366e-02, 3.78864189e-03,
          4.33414988e-02, 6.02072105e-02 ]
      - [ 1.10483050e-01, -1.36003807e-01, -1.22873634e-01,
          7.41939545e-02, 2.34945923e-01, 2.42279973e-02, 6.20314181e-02,
          -5.55282608e-02, 1.03670873e-01, -4.43944111e-02,
          -3.58619243e-02, -1.17672279e-01, -1.38924336e-02,
          2.32937988e-02, 9.97685120e-02, -2.00526640e-02,
          -1.02849323e-02, -1.45543441e-02, 2.22336762e-02,
          -8.52046981e-02, 3.51475365e-02, 4.15805355e-02,
          7.82143325e-02, -3.26211512e-01, 4.46352288e-02,
          8.22381582e-03, 3.41471918e-02, -9.92353559e-02,
          -1.69677604e-02, -1.84959337e-01, 5.21727242e-02,
          2.04721298e-02, 8.54357705e-02, -3.49922013e-03,
          -1.95765728e-03, 1.27545416e-01, -2.63876077e-02,
          -3.17643620e-02, 1.32179214e-02, 8.23361352e-02,
          8.64752382e-03, 3.41249742e-02, 9.63834152e-02, 1.55361459e-01,
          -3.65108252e-02, -7.64979869e-02, 3.87543812e-02,
          -9.28772055e-03, 5.32004312e-02, -8.36900771e-02 ]
      - [ 2.63549954e-01, -1.24675529e-02, -1.94674462e-01,
          2.27997646e-01, 2.60567546e-01, -4.98644868e-03,
          -2.50147671e-01, 1.71825603e-01, -3.67345698e-02,
          -5.41873537e-02, 1.70167834e-02, -3.41628730e-01,
          1.78478137e-01, -6.57127127e-02, -5.24397660e-03,
          -1.47926202e-02, -5.12972847e-02, 6.79425895e-02,
          4.40880610e-03, 1.13212690e-01, 5.13355672e-01,
          -6.62818626e-02, -3.42497439e-03, -3.08780134e-01,
          5.93879819e-02, -4.68966439e-02, -8.43567327e-02,
          1.26793355e-01, 1.36669666e-01, -4.68380861e-02,
          -8.15795660e-02, 1.55530676e-01, 1.33727938e-01,
          -1.55131578e-01, 3.93293947e-02, -3.95556800e-02,
          -1.64733455e-01, -3.77018154e-01, -2.01397538e-02,
          1.27731441e-02, 8.60193465e-03, 2.32721474e-02, 4.90343086e-02,
          3.83389220e-02, 2.98360795e-01, 2.13935331e-01, 3.83282721e-01,
          -1.25184253e-01, 6.10681660e-02, -1.66072145e-01 ]
      - [ 9.90485027e-02, 3.16186361e-02, -1.57797694e-01,
          2.33629733e-01, 3.32862645e-01, -6.38867468e-02,
          -2.75136292e-01, -9.75934882e-03, 1.23478703e-01,
          -3.78734469e-02, -1.89434364e-01, -8.60630628e-03,
          1.93487909e-02, -1.28931060e-01, 9.49984789e-03,
          1.91610709e-01, 2.67829835e-01, 1.26994848e-01, 3.15546662e-01,
          -1.03603452e-01, 4.55185883e-02, 3.84186715e-04,
          1.75876454e-01, -2.00691000e-01, 9.14125517e-02,
          -1.53756931e-01, -7.97242597e-02, -8.41438249e-02,
          8.02990943e-02, -9.78853852e-02, -5.99545389e-02,
          -6.63744882e-02, -1.45384148e-01, -5.16182072e-02,
          -1.77242815e-01, 1.80072382e-01, -1.54833674e-01,
          -1.58162981e-01, 7.01456591e-02, 1.37639835e-01,
          3.67801078e-02, -2.10206434e-01, 2.25168511e-01,
          6.33090585e-02, -6.15943670e-02, 4.51293439e-02,
          1.42373532e-01, -3.26641321e-01, 2.00414117e-02,
          2.19862461e-01 ]
      - [ 5.37882596e-02, -2.60853041e-02, -7.75161460e-02,
          2.77247280e-03, 2.30862066e-01, -9.50036012e-03,
          -1.10171169e-01, -1.30564878e-02, -2.80184858e-02,
          8.83500949e-02, -3.10343169e-02, -1.49537861e-01,
          -4.27618483e-03, 5.89842051e-02, 6.31583631e-02,
          -6.99006626e-03, 4.81478907e-02, 7.66504183e-02,
          1.35946512e-01, -1.90541223e-02, 1.19765684e-01,
          7.72807226e-02, 1.89741701e-03, -2.51036555e-01,
          6.67666122e-02, -1.13585219e-01, -3.41456234e-02,
          9.64122787e-02, 2.16604233e-01, -4.34349030e-02,
          9.42070410e-02, -3.23446952e-02, 2.09996644e-02,
          -2.36157283e-01, 4.08293642e-02, 3.81785594e-02,
          -1.70491505e-02, -1.99133396e-01, 6.77922145e-02,
          1.81472711e-02, 1.26044741e-02, -7.23259151e-02,
          -4.91354149e-03, 1.23743258e-01, -3.06049865e-02,
          -7.29160011e-02, 3.44429240e-02, 2.72153728e-02,
          9.45229083e-03, 7.82526843e-03 ]
      - [ -2.13474371e-02, 1.81066357e-02, -4.00502719e-02,
          1.95684358e-01, 1.67706057e-01, -7.71086616e-03,
          -1.58069119e-01, 3.39563638e-02, 7.76338484e-03,
          1.10271173e-02, -1.04851790e-01, -1.69717669e-02,
          2.59109512e-02, 2.11689603e-02, 1.08170081e-02,
          -3.02382223e-02, -3.14099081e-02, 4.36912663e-02,
          -4.05858234e-02, -5.75808855e-03, 5.71839735e-02,
          -7.61926696e-02, 1.40494928e-02, 2.14037672e-02,
          1.02347778e-02, -7.65636265e-02, -5.12825996e-02,
          -1.98534578e-01, -2.01143827e-02, -5.00760637e-02,
          2.97212750e-02, -1.16161361e-01, -3.12008336e-02,
          -1.23861313e-01, 1.92320384e-02, -1.42819270e-01,
          1.94492489e-01, -2.00858191e-01, 1.33463949e-01,
          -6.75287768e-02, -3.64516303e-02, 1.56926867e-02,
          6.39105365e-02, -4.22147922e-02, -3.42698321e-02,
          1.08563956e-02, 1.27506889e-02, -5.71299158e-02,
          4.84591834e-02, -1.12538397e-01 ]
      - [ 1.99900284e-01, -1.09914444e-01, -4.55894440e-01,
          1.80553630e-01, 3.97000730e-01, 2.66763736e-02,
          -3.11029941e-01, -2.06645895e-02, 7.90406764e-02,
          9.39502269e-02, 7.86186103e-03, 2.02688333e-02,
          -8.67290720e-02, -2.83230143e-03, 8.44306797e-02,
          -7.05401599e-02, -2.05870092e-01, -1.33721512e-02,
          -1.01099946e-02, -7.62150362e-02, 2.40307197e-01,
          2.13060509e-02, -1.04309283e-01, -1.12207957e-01,
          -5.38545661e-02, -2.13145778e-01, 1.04337648e-01,
          -2.00787365e-01, -3.11235301e-02, -3.88714641e-01,
          8.66722390e-02, -7.09379762e-02, 7.86679462e-02,
          -2.40285903e-01, 2.68133394e-02, 6.60592690e-02,
          2.84188956e-01, -9.53072980e-02, -7.48498216e-02,
          2.99073517e-01, -2.60069147e-02, -2.49600373e-02,
          1.44405037e-01, 2.79867742e-02, -1.40373811e-01,
          -1.56952161e-02, -1.38035715e-01, -1.02019817e-01,
          7.43359700e-02, -1.35885715e-01 ]
      - [ -5.02550304e-02, -6.79520741e-02, -1.60580233e-01,
          5.52663542e-02, -2.21866891e-02, -3.81301418e-02,
          3.66703831e-02, 4.47779186e-02, -3.20736468e-02,
          1.07402466e-01, -4.46985699e-02, -8.72445628e-02,
          -3.57521065e-02, -3.96520942e-02, -6.33297935e-02,
          1.10593393e-01, -2.06843153e-01, -2.89328434e-02,
          -4.26293118e-03, -6.03239797e-02, -5.40069863e-02,
          -3.99830192e-02, -8.18910543e-03, -2.34155089e-01,
          -2.43991558e-02, 1.67474151e-02, 7.23589137e-02,
          8.28455389e-02, -5.08531444e-02, -9.47310477e-02,
          -1.09095350e-01, 1.57929957e-03, -1.25793824e-02,
          -1.08725443e-01, -7.50921890e-02, 5.34048937e-02,
          9.07723084e-02, -2.65482366e-01, 5.75624816e-02,
          1.22035213e-01, -4.55167517e-02, -5.74940862e-03,
          7.78686022e-03, -5.42703681e-02, -1.73223279e-02,
          -7.03931749e-02, 6.34616241e-02, -1.40828699e-01,
          -7.66370818e-03, 1.27412885e-01 ]
      - [ 5.37539739e-03, 1.90307181e-02, -1.13028355e-01,
          2.45952141e-02, 2.94835627e-01, -1.18753783e-01,
          -2.90224284e-01, 2.57921070e-02, -3.44109461e-02,
          -2.77942922e-02, -3.27003337e-02, 1.25425339e-01,
          1.51413158e-01, 1.44443899e-01, 1.57161608e-01, 2.97074616e-01,
          -5.20681962e-02, -2.40939222e-02, -1.44571558e-01,
          3.36818099e-02, -8.92215073e-02, -8.68218951e-04,
          -3.62486169e-02, -4.51623499e-01, 7.96447173e-02,
          -3.21116239e-01, -8.91014561e-02, 3.11064459e-02,
          -3.66811641e-02, -1.69301063e-01, 3.71071585e-02,
          1.82797071e-02, -2.17040791e-03, -2.01374173e-01,
          -1.20843090e-01, 5.66656925e-02, 1.01971691e-02,
          -2.05075517e-01, 6.62833825e-02, 9.58534479e-02,
          2.90515404e-02, -1.07629709e-01, 2.62448817e-01,
          -1.88718196e-02, -2.29636475e-01, 5.02834320e-02,
          7.04943612e-02, 1.50088921e-01, -1.86237589e-01,
          1.90397084e-01 ]
      - [ 6.58544004e-02, 5.17465696e-02, -1.05654197e-02,
          2.31113490e-02, 6.87431470e-02, 8.92975777e-02,
          -9.16844383e-02, -6.03622459e-02, 1.73065275e-01,
          -1.51523724e-01, -1.07016467e-01, -1.80940047e-01,
          1.97018817e-01, -1.70298591e-01, 2.17507586e-01,
          1.18967503e-01, -2.55385786e-01, 2.16544494e-01,
          -1.29733235e-01, 1.39242923e-02, 2.26546794e-01,
          -4.43589129e-02, 1.59154579e-01, -9.25623477e-02,
          1.10157430e-01, 9.22437608e-02, 1.00932671e-02,
          -4.95491959e-02, 9.24048871e-02, -2.51554936e-01,
          -5.42452447e-02, 3.29081528e-02, 5.82459792e-02,
          -5.08836061e-02, -7.20980838e-02, -9.66181234e-02,
          -1.07528262e-01, -2.06486240e-01, 7.32107386e-02,
          -5.72920069e-02, -3.22183408e-02, 2.51306921e-01,
          1.46735951e-01, 7.75823444e-02, 2.72144023e-02,
          -5.99504858e-02, 1.83895066e-01, 9.26874429e-02,
          7.62482360e-02, -1.12945244e-01 ]
      - [ 7.46818334e-02, 1.94834262e-01, -1.71068951e-01,
          3.09535190e-02, 1.80199772e-01, -3.41510400e-03,
          -1.55242547e-01, 5.72726876e-02, -2.03940440e-02,
          4.23765369e-02, -7.16417581e-02, -3.61779891e-02,
          1.88027695e-01, -6.07428700e-02, 1.90075621e-01,
          -1.32791355e-01, -8.48819315e-02, 4.19679955e-02,
          2.48036347e-02, -8.62875506e-02, 1.48643017e-01,
          -1.01303272e-01, 4.44193669e-02, -2.05393389e-01,
          7.63304085e-02, -2.26201162e-01, -1.70672070e-02,
          -4.18558046e-02, 1.52553827e-01, 1.22179678e-02,
          -2.05697422e-03, -2.42628250e-02, 2.18909476e-02,
          -7.33357668e-02, 2.89511103e-02, 1.40694469e-01,
          -1.26399070e-01, -1.17790081e-01, 1.96864214e-02,
          -1.09177366e-01, 2.85671670e-02, 6.81936368e-03,
          1.21884689e-01, 1.62648931e-02, 4.40732390e-02, 9.37015638e-02,
          1.16750181e-01, -1.63021535e-01, 1.59069881e-01,
          -6.69715554e-02 ]
      - [ -2.12911982e-02, -4.85080518e-02, -1.09327823e-01,
          2.13733628e-01, 2.21820056e-01, 1.02939069e-01,
          -1.01743437e-01, 2.84367194e-03, 4.33445349e-02,
          1.52191237e-01, 9.87062231e-03, 3.47649306e-02,
          -1.48585245e-01, 6.97306097e-02, 1.70215126e-02,
          -7.41633475e-02, 1.30327329e-01, 1.23668239e-02,
          5.37360124e-02, 1.34223595e-01, 6.65447861e-03, 9.04404372e-02,
          -2.43913736e-02, -2.98825800e-01, 1.57234773e-01,
          8.29443112e-02, -5.49158603e-02, -1.04496870e-02,
          1.75474972e-01, -5.93403801e-02, -3.77871990e-02,
          -6.23825788e-02, 4.66529317e-02, -1.50170073e-01,
          1.24260737e-02, -1.55255258e-01, 1.29154831e-01,
          -7.01586753e-02, 8.70006159e-02, 4.87541668e-02,
          5.77588100e-04, -8.18976983e-02, -8.74466151e-02,
          -1.93665142e-03, 2.56517227e-03, 1.17029876e-01,
          -3.12125101e-03, -9.80859995e-02, 3.18558305e-03,
          -5.24965161e-03 ]
      - [ 1.34033680e-01, 9.00916383e-02, -2.55675554e-01,
          3.02373022e-02, 1.47237316e-01, -5.40466458e-02,
          -1.06293768e-01, 4.73079570e-02, -1.91172868e-01,
          7.44567290e-02, 9.62491035e-02, 1.47315249e-01, 7.79463351e-02,
          -3.06807250e-01, 9.87027809e-02, 1.48035899e-01,
          -1.04194850e-01, 9.06612575e-02, 7.06800222e-02,
          -1.00867353e-01, 1.15125842e-01, 8.85723606e-02,
          -2.76143569e-02, -2.10104540e-01, 6.94343448e-02,
          -2.43715867e-01, -5.08723781e-02, -3.77698317e-02,
          1.88359395e-01, -1.45016387e-01, -1.02338955e-01,
          -1.20678887e-01, 1.30587578e-01, -7.89539889e-02,
          8.59782547e-02, 1.05651468e-02, -3.73395495e-02,
          -1.40667915e-01, -8.91282968e-03, -1.29774660e-01,
          1.12521043e-03, -1.43851057e-01, 3.18258777e-02,
          7.35736489e-02, -7.27542341e-02, 1.40978083e-01,
          1.11265287e-01, -9.11115482e-02, 1.04580909e-01,
          4.87980507e-02 ]
      - [ 4.41835336e-02, -4.21217419e-02, -2.79856861e-01,
          -1.01208963e-01, 2.02344246e-02, -2.42837090e-02,
          -2.12974697e-01, -7.68639669e-02, 5.12532853e-02,
          1.01489304e-02, -1.37075350e-01, 4.11005318e-02,
          -5.71203567e-02, -2.84811974e-01, 1.44912601e-01,
          -2.76253045e-01, -2.68663671e-02, 5.96586950e-02,
          -1.14551432e-01, 1.09287776e-01, 1.17017038e-01,
          5.62782511e-02, 2.03681625e-02, -3.40109676e-01,
          1.28990710e-01, 4.34711725e-02, -5.54118352e-03,
          -9.23096463e-02, 3.25857140e-02, -7.79506285e-03,
          8.49128366e-02, 5.58974221e-04, -5.51202893e-02,
          -7.38129392e-03, 3.44650388e-01, -1.39864117e-01,
          9.51567516e-02, -1.79496557e-01, -1.80972721e-02,
          3.23929265e-02, -4.59318003e-03, -1.01235181e-01,
          -1.91871468e-02, 4.89068031e-02, 8.68908167e-02,
          2.56868154e-01, 4.47893403e-02, -1.87242642e-01,
          1.71720326e-01, -3.63428220e-02 ]
      - [ -5.86889647e-02, 1.24544892e-02, -4.50907834e-02,
          -7.18512088e-02, 3.30368727e-02, -1.43585168e-02,
          -6.72722310e-02, 1.57692537e-01, 2.67103706e-02,
          -4.30776924e-02, 3.56476940e-02, -2.97047365e-02,
          1.71873644e-02, 1.39666777e-02, -8.31228867e-02,
          8.07730779e-02, 1.15229213e-03, 3.09487563e-02,
          -2.10848153e-02, 3.05559300e-02, -2.18541548e-02,
          -3.97869274e-02, -3.63304131e-02, 6.11842759e-02,
          5.43180779e-02, -1.12366110e-01, -1.12818241e-01,
          -1.82112642e-02, -1.62677735e-01, 1.27744168e-01,
          4.15986963e-02, -8.42376798e-02, -2.34709591e-01,
          -2.93002967e-02, 1.63093545e-02, 9.11866408e-03,
          3.71043235e-02, -4.68454137e-02, -2.73953797e-03,
          1.01419007e-02, -7.70259500e-02, -8.63990933e-02,
          -1.11593045e-02, 2.30144691e-02, 1.49781048e-01,
          2.73244232e-02, -1.84761528e-02, 2.41971891e-02,
          3.49782556e-02, -6.84471242e-03 ]
      - [ 6.85854852e-02, 1.06784943e-02, -6.51067346e-02,
          2.78620068e-02, 8.20503756e-02, -1.36456400e-01,
          -8.24727938e-02, 1.75989300e-01, -1.39775917e-01,
          -1.42448977e-01, 1.30299684e-02, 1.11743119e-02,
          1.83537118e-02, -1.71246022e-01, -5.65646291e-02,
          -1.10822417e-01, -1.34451678e-02, 4.70924489e-02,
          -3.86843085e-02, 1.30254552e-01, -5.27464896e-02,
          -1.87110789e-02, 1.73122078e-01, 2.61860546e-02,
          5.49385399e-02, -3.80885229e-02, 1.83222685e-02,
          1.52883921e-02, -9.53787491e-02, 1.15838274e-01,
          7.87594318e-02, 6.45847917e-02, -2.26592019e-01,
          -7.57525489e-02, 9.62693319e-02, 2.46280879e-02,
          1.62869953e-02, -6.01944774e-02, -3.18187922e-02,
          -2.21449044e-02, -5.94661944e-02, -1.24104016e-01,
          -1.67422861e-01, 1.44623116e-01, -3.30569968e-02,
          -4.21600007e-02, 1.05944626e-01, 8.83277506e-02,
          1.23538062e-01, -2.76085120e-02 ]
      - [ 3.58214378e-02, -2.15376526e-01, -1.34182647e-01,
          2.09977571e-02, -1.31437168e-01, -1.01972573e-01,
          9.79231372e-02, 2.24177346e-01, -1.07843943e-01,
          -2.30162349e-02, -9.31911394e-02, 1.00663438e-01,
          -4.85998392e-02, 1.96459014e-02, -1.95056081e-01,
          1.01206034e-01, -2.63909489e-01, 1.73696980e-01,
          1.81803823e-01, 2.25056216e-01, 3.44512239e-02, 1.80427864e-01,
          -2.65223663e-02, -2.42799502e-02, 2.89443821e-01,
          -8.76558051e-02, -3.77369300e-02, 5.09634800e-02,
          -2.47557923e-01, 9.51196924e-02, 5.07830903e-02,
          -7.69063458e-02, -7.42908791e-02, -2.98551381e-01,
          -7.39506185e-02, 7.69607872e-02, 1.75975204e-01,
          -8.51740316e-02, -2.17429712e-01, -4.11283784e-02,
          6.94907308e-02, -3.40894282e-01, -3.07258636e-01,
          5.02217822e-02, 4.26343530e-01, -7.05983266e-02,
          1.72978312e-01, 1.40811682e-01, 2.46818095e-01, 1.20063238e-02 ]
      - [ 5.49323931e-02, 1.76239423e-02, -3.44444858e-03,
          2.86395997e-02, 3.22160833e-02, -7.32459798e-02,
          -3.50699760e-02, 8.12325701e-02, -6.57854676e-02,
          -6.27569184e-02, 3.03815342e-02, -3.93730663e-02,
          4.33739386e-02, -1.19213924e-01, -1.01932578e-01,
          -5.84287867e-02, -1.10970261e-02, -5.94563857e-02,
          3.25081572e-02, 3.35145332e-02, 2.75569540e-02,
          -1.28273424e-02, -2.15845574e-02, 3.42687243e-03,
          -3.44084878e-03, -4.60524261e-02, -2.30563283e-02,
          2.07036696e-02, -8.05542767e-02, 1.19143561e-01,
          2.26568487e-02, -2.88665015e-02, -1.81845948e-01,
          -2.56313290e-02, -2.08959430e-02, 6.45408705e-02,
          3.80471796e-02, -1.64719287e-03, -2.94732861e-02,
          7.30795413e-02, -1.02300212e-01, -6.28114790e-02,
          -1.24604039e-01, 6.61693737e-02, -7.55981505e-02,
          -4.18703817e-02, 8.43540728e-02, 5.21014817e-02,
          2.22636908e-01, -7.96676651e-02 ]
      - [ -1.27709717e-01, -2.88124420e-02, -6.08362537e-03,
          3.79973128e-02, -9.04545188e-02, -4.03931998e-02,
          -3.77755836e-02, 1.26966059e-01, -3.96555029e-02,
          -1.09819233e-01, 6.48485869e-02, 9.22241062e-02,
          -2.41988152e-02, -1.22814514e-01, -6.06494099e-02,
          4.03950736e-03, -3.34452987e-02, 4.76119369e-02,
          5.44736683e-02, 1.40883312e-01, 1.51096452e-02, 8.88310149e-02,
          -1.76017433e-02, 3.79669145e-02, 4.93693091e-02,
          -2.16562316e-01, 6.92873076e-02, 3.92814241e-02,
          -5.74956052e-02, 1.20885950e-02, 8.25728029e-02,
          -1.51416972e-01, -1.09152563e-01, 2.17035674e-02,
          4.35388647e-02, 6.94813579e-02, -7.79392943e-02,
          -1.59539118e-01, -6.04286008e-02, -2.35751625e-02,
          -1.16408490e-01, -8.02242309e-02, -1.06691681e-01,
          1.32353589e-01, 1.29945725e-01, -1.08218659e-02,
          -8.50621685e-02, 6.64604008e-02, 1.59808710e-01,
          6.89541698e-02 ]
      - [ 3.43138762e-02, 1.99921783e-02, -3.60143334e-02,
          -4.03152816e-02, -6.48977235e-02, -9.50276926e-02,
          3.23048458e-02, 1.67245150e-01, 2.64948029e-02,
          -5.05046593e-03, -1.41598880e-02, 3.35858576e-02,
          -2.34311577e-02, 6.71960935e-02, -8.63955691e-02,
          -4.22195718e-02, 3.15260626e-02, 4.11390178e-02,
          1.54992985e-02, 1.91741697e-02, 3.72612476e-02, 8.44546594e-03,
          1.78799052e-02, 7.23002702e-02, -1.49825849e-02,
          -2.68184356e-02, 3.72559763e-02, 1.28755905e-02,
          -4.86798659e-02, 1.17833897e-01, 6.02979697e-02,
          -8.80330130e-02, -8.64655599e-02, -3.81173939e-02,
          4.47705053e-02, -2.27363948e-02, 2.04352979e-02,
          -9.79673490e-02, -1.14386968e-01, -6.08444177e-02,
          -5.10705868e-03, -4.96869199e-02, -1.61168143e-01,
          1.19118482e-01, -3.89575139e-02, 1.71370115e-02,
          3.71625684e-02, 3.62630300e-02, 7.71537274e-02,
          -5.33098467e-02 ]
      - [ -1.49197698e-01, 2.56021693e-02, -2.82963097e-01,
          4.97838436e-03, 2.61243265e-02, -2.19931871e-01,
          -1.11174054e-01, 3.63538772e-01, 2.96649873e-01,
          2.48857707e-01, 5.34454547e-02, -1.11788489e-01,
          -1.51048899e-01, -4.45509329e-02, -2.57673096e-02,
          3.28999579e-01, -8.47189501e-02, -9.61002707e-02,
          3.46782148e-01, -8.07296038e-02, 1.40621490e-03,
          9.30168331e-02, 5.06670885e-02, 4.20168638e-02, 1.15988955e-01,
          -2.78131753e-01, 4.21407968e-02, 7.51114562e-02,
          -2.86133945e-01, 2.33395457e-01, -1.51748285e-02,
          2.65596677e-02, -3.52209538e-01, -2.55650908e-01,
          8.12761188e-02, 5.32317720e-02, 1.23300500e-01,
          -1.66259900e-01, -2.71117479e-01, -1.31182045e-01,
          -7.31468424e-02, -1.69062823e-01, -1.80429757e-01,
          1.20511942e-01, -9.04570147e-03, 3.46233025e-02,
          2.85505038e-02, 8.81508291e-02, 1.67385489e-01,
          -6.47933707e-02 ]
      - [ -9.06572565e-02, -1.36108011e-01, -1.58531502e-01,
          1.11170523e-02, -1.01794943e-01, -1.70922101e-01,
          2.75252592e-02, 2.11552888e-01, -3.76377814e-02,
          -1.17243059e-01, 1.85652107e-01, 6.49333149e-02,
          -5.71705513e-02, -2.35942975e-01, -1.94668710e-01,
          -1.23785265e-01, 9.72198695e-02, -4.44873124e-02,
          1.09235123e-01, 9.17624235e-02, -1.38828671e-02,
          1.26169488e-01, -8.18400159e-02, 2.15113446e-01,
          1.60743460e-01, -7.46918842e-02, 1.43924654e-01,
          1.07643083e-02, -4.08747187e-03, -2.56536901e-03,
          3.85476612e-02, -5.01162820e-02, 2.09912620e-02,
          -2.07012936e-01, -1.13223419e-01, 1.34289488e-01,
          -4.08730321e-02, -4.13642883e-01, 1.89338773e-02,
          -5.64102456e-02, -7.57545605e-02, -1.63540468e-01,
          -2.12069541e-01, 2.71135628e-01, -1.21569522e-01,
          9.58180353e-02, 6.08256236e-02, 9.68223885e-02, 1.36327758e-01,
          -5.26542030e-02 ]
      - [ -5.70284426e-02, 1.15638431e-02, -4.94264327e-02,
          2.30986625e-02, 1.10445684e-02, -1.11178562e-01,
          -1.29658461e-01, 1.56898811e-01, -1.04193069e-01,
          -1.66865781e-01, 6.53275009e-03, -1.51794953e-02,
          -5.06452024e-02, -9.10171270e-02, -1.06158018e-01,
          -2.57743448e-02, -2.27468982e-02, 3.63092348e-02,
          2.23915979e-01, 9.20227766e-02, -2.92208660e-02,
          5.38824014e-02, 1.14868052e-01, -9.02369246e-02,
          9.76705644e-03, -5.06063700e-02, 5.66923469e-02,
          6.71094796e-03, 8.69587809e-02, 3.91532481e-02, 7.99176246e-02,
          -1.06607214e-01, -1.74625829e-01, -4.96392176e-02,
          -4.96786013e-02, 8.40175226e-02, 8.25524703e-02,
          -2.41443500e-01, -8.64441916e-02, -2.07937825e-02,
          3.01276240e-02, -1.70522615e-01, -1.05209887e-01,
          1.05523594e-01, 3.72879319e-02, -3.87018099e-02,
          2.19427533e-02, 2.35148489e-01, 4.92562726e-02, 1.14099784e-02 ]
      - [ -1.47414953e-01, -1.97534654e-02, -1.06183924e-01,
          -3.03290617e-02, 1.27335355e-01, -7.56397173e-02,
          -8.20634365e-02, 2.72064865e-01, 5.22499569e-02,
          -1.13615170e-01, -6.03520498e-02, -1.27155453e-01,
          -1.44776434e-01, 1.50687788e-02, -1.64940488e-02,
          7.86483437e-02, 4.42821421e-02, 5.17064407e-02, 1.59175068e-01,
          1.56959355e-01, -3.67522575e-02, 2.79774666e-02,
          1.12322748e-01, -8.68203640e-02, 1.33588240e-01,
          -2.40704995e-02, -1.05473369e-01, 4.41339612e-02,
          -1.77969158e-01, 7.31986165e-02, 2.04754323e-01,
          -1.18858449e-01, -3.29823822e-01, -1.97161757e-03,
          3.56584974e-02, -7.55255744e-02, 6.05707020e-02,
          -2.83104986e-01, -1.63536519e-01, -1.71633437e-01,
          3.00701670e-02, -2.81898439e-01, -1.38845980e-01,
          8.36229101e-02, 1.08997159e-01, -4.97008022e-03,
          3.37627143e-01, 1.89731523e-01, 1.28374413e-01,
          -1.22136943e-01 ]
      - [ -1.43469006e-01, -2.92321462e-02, 2.69276518e-02,
          -8.95539150e-02, -1.64909035e-01, -1.09976798e-01,
          -3.21526974e-02, 2.78668523e-01, -1.00406602e-01,
          -1.41956359e-01, 4.72154142e-03, 6.82443231e-02,
          -7.69626275e-02, 7.81147331e-02, -1.57644629e-01,
          -1.08885512e-01, 1.16406500e-01, 6.79343268e-02,
          2.18910594e-02, 1.49496421e-01, 9.08342674e-02, 1.58546008e-02,
          1.22036122e-01, 1.44306034e-01, 1.53251067e-01, 6.30359724e-02,
          -4.09908108e-02, 9.90692899e-02, -1.76881507e-01,
          5.21983653e-02, 5.08712009e-02, -1.51979491e-01,
          -2.23401114e-01, -1.59297526e-01, -1.04812786e-01,
          -3.28840688e-03, 2.61197910e-02, -2.60055102e-02,
          4.02606241e-02, -8.77452269e-02, -1.07921645e-01,
          -2.14477524e-01, -1.76751107e-01, 1.79815665e-01,
          1.18157633e-01, -5.42099914e-03, 1.46601483e-01,
          1.44814193e-01, 5.65096131e-03, 7.79062286e-02 ]
      - [ -1.87558867e-02, 5.68380356e-02, -1.40598729e-01,
          1.02063976e-01, -1.05517954e-01, -2.22999692e-01,
          -6.94691315e-02, 5.37096970e-02, -9.92951076e-03,
          -2.27526993e-01, 4.75166403e-02, 7.62619823e-02,
          -1.59016345e-02, 4.45555635e-02, 3.95862758e-01,
          -1.00885764e-01, 2.63740029e-02, -6.29721284e-02,
          1.27417132e-01, -4.26088683e-02, 1.33127362e-01,
          -9.15411580e-03, 6.18260726e-03, 1.18378550e-01,
          2.75350325e-02, -3.56552191e-02, -3.98955680e-02,
          1.61194354e-01, -7.80180097e-02, 2.65893340e-01,
          -6.46506026e-02, -4.67126817e-02, -1.95379227e-01,
          -1.27277663e-02, 7.37178028e-02, 8.01034421e-02,
          2.86950376e-02, 1.16972895e-02, -3.14155012e-01,
          -5.47262877e-02, -3.15989479e-02, -1.30524367e-01,
          -4.63153869e-02, 1.26645908e-01, -6.08594343e-03,
          -6.53005093e-02, 8.57965648e-02, 6.59338478e-03,
          1.83809787e-01, -1.91894650e-01 ]
      - [ 5.05391555e-03, 1.34962186e-01, 6.75725192e-02, 7.23987445e-02,
          -7.46462196e-02, -1.48229286e-01, -1.42943844e-01,
          2.85686284e-01, -5.10992743e-02, -1.55719474e-01,
          1.88843609e-04, -1.11875115e-02, 1.06513808e-02,
          -1.09843295e-02, -3.27222496e-02, -1.06904775e-01,
          3.31815556e-02, -5.75160347e-02, -3.61224823e-02,
          1.09885089e-01, 8.44990686e-02, -3.05256415e-02,
          -8.15141276e-02, 2.29129985e-01, 6.78692684e-02,
          -1.04966164e-01, -1.21756561e-01, 1.11029230e-01,
          -1.54501900e-01, 1.49550408e-01, 7.33069032e-02,
          -2.18691435e-02, -8.46584588e-02, -3.08378879e-02,
          4.13607657e-02, 9.31397825e-02, -3.17690596e-02,
          -3.45636755e-02, -7.03403950e-02, 8.45352784e-02,
          -6.00541309e-02, -9.91578102e-02, -9.24706981e-02,
          9.39389467e-02, -1.06398743e-02, 4.93708579e-03,
          1.38487592e-01, -2.25676708e-02, 9.84680429e-02,
          -2.99614687e-02 ]
      - [ -1.70662790e-03, 1.05353873e-02, -7.29959924e-03,
          -9.96650010e-03, 3.83537896e-02, -9.36472192e-02,
          -1.47207342e-02, 3.28258052e-02, -1.48245469e-01,
          -2.93824654e-02, 6.47746027e-02, -3.58985625e-02,
          -1.41938366e-02, -2.74405833e-02, -7.39313364e-02,
          -3.77715826e-02, -1.14940135e-02, -5.38517162e-02,
          6.72748461e-02, -1.51306344e-03, -8.85641798e-02,
          -4.14966121e-02, -4.31861021e-02, -5.66309541e-02,
          -4.56698425e-02, -1.04400441e-01, -7.30870590e-02,
          -6.52262717e-02, -9.99196097e-02, 6.50693402e-02,
          -2.27319193e-03, -1.62242338e-01, -4.34479080e-02,
          -4.00660783e-02, -6.23564869e-02, 1.86683331e-02,
          6.46428913e-02, -1.48306325e-01, -1.99242800e-01,
          -3.03692389e-02, -5.89434728e-02, -1.05680063e-01,
          -1.27620876e-01, -1.79631282e-02, -2.11538427e-04,
          -4.27704453e-02, 9.08989161e-02, 6.33663610e-02,
          1.34995386e-01, -1.82731170e-02 ]
      - [ -3.58342528e-02, 2.43212637e-02, -1.27952591e-01,
          3.31639610e-02, -7.30354860e-02, 8.51915684e-03,
          1.35881063e-02, 1.03417099e-01, -4.81185038e-03,
          -5.59847206e-02, 4.09500487e-02, -6.00947402e-02,
          -5.53973392e-02, -4.01595756e-02, 2.68197544e-02,
          6.78214952e-02, 8.46189782e-02, -7.98122585e-03,
          1.49886478e-02, 8.57215598e-02, -1.07322223e-02,
          1.46393673e-02, 3.99900675e-02, 4.78408448e-02, 2.63816807e-02,
          -9.26726460e-02, -5.27809840e-03, 3.76996621e-02,
          -5.47764301e-02, 1.02247231e-01, 2.84974612e-02,
          -2.07480639e-02, -1.14273317e-01, -1.16507113e-01,
          3.68386544e-02, 4.64865342e-02, -5.07253632e-02,
          -1.53671354e-02, -1.43604442e-01, -4.81731631e-03,
          -5.35275601e-02, -6.65316731e-02, -1.03895240e-01,
          5.06417230e-02, -1.75835448e-03, 3.27701983e-03,
          5.75857311e-02, 2.77214646e-02, 5.72742820e-02, 3.43746766e-02 ]
      - [ -9.49514955e-02, -1.30257800e-01, -1.81954458e-01,
          2.03925893e-02, -4.40198462e-03, -8.73842314e-02,
          -3.71711254e-02, 4.13246565e-02, 1.18814357e-01,
          1.33181691e-01, 1.46268487e-01, 8.09084028e-02,
          -2.24549428e-01, 1.83386475e-01, 2.01179720e-02,
          1.42023265e-01, 1.15754522e-01, -1.13764443e-01,
          1.32525116e-01, -1.60698835e-02, -1.70464009e-01,
          -3.22846547e-02, -5.27462810e-02, -8.43688920e-02,
          -1.00346535e-01, -2.14064702e-01, 4.37295623e-02,
          6.51889071e-02, -1.88749228e-02, 2.64242887e-01,
          1.05698772e-01, -1.22203887e-01, -6.63248524e-02,
          -2.23214507e-01, -3.23516801e-02, 1.86317146e-01,
          1.94375850e-02, -4.77238782e-02, -1.80132017e-01,
          -2.38936692e-01, 7.08400235e-02, -1.95771575e-01,
          -8.68097171e-02, 1.34082422e-01, 7.52047449e-02,
          1.24880662e-02, -2.51055527e-02, 2.54568458e-01,
          6.68073371e-02, 1.04275636e-01 ]
      - [ -1.10811941e-01, -1.08066149e-01, 1.24123417e-01,
          -7.13770464e-02, 9.40052569e-02, -3.09209600e-02,
          1.22908793e-01, 1.98325768e-01, -7.81972408e-02,
          -5.78163750e-03, 1.49081215e-01, 2.63220847e-01,
          -9.97718498e-02, 3.51171345e-02, -7.95935988e-02,
          1.68756228e-02, 5.50319552e-02, -4.19304632e-02,
          1.28541747e-02, 1.44335374e-01, 7.52069429e-02,
          -2.23786592e-01, -1.18294790e-01, -1.56611074e-02,
          2.43267622e-02, -1.47379741e-01, -6.30457774e-02,
          1.01901535e-02, 5.71906986e-03, 3.81237194e-02, 4.70612198e-02,
          -6.87905774e-02, 2.82483827e-02, -7.87465200e-02,
          -6.53446689e-02, 1.43393651e-01, 1.48909882e-01,
          -2.22671106e-01, -6.30109608e-02, -5.54346591e-02,
          -7.67655745e-02, -7.61830881e-02, -2.02026635e-01,
          1.92554101e-01, 1.24332540e-01, 6.74955398e-02, 2.44992655e-02,
          9.75721702e-02, 5.71694970e-02, 4.49951924e-02 ]
      - [ -1.16674885e-01, -4.94001657e-02, -3.70840207e-02,
          -2.52342746e-02, 6.95714355e-02, -1.00299992e-01,
          -2.26172768e-02, 4.48491201e-02, 2.68900674e-02,
          4.79627289e-02, -1.66040696e-02, -1.25321429e-02,
          -2.14255583e-02, -3.52138355e-02, -1.08786546e-01,
          3.09234019e-02, -1.05127446e-01, -1.24757089e-01,
          9.55155212e-03, -4.32865880e-02, -2.70476639e-02,
          5.45406118e-02, -7.81572890e-03, 6.36475384e-02,
          2.76116040e-02, -1.94326282e-01, -9.67355445e-02,
          -3.33523713e-02, -5.39999455e-02, 9.37965214e-02,
          -3.02108955e-02, -1.11740701e-01, -4.31961529e-02,
          -1.05287671e-01, 9.77489352e-02, -2.69087348e-02,
          5.63351288e-02, -6.99159652e-02, -9.17035118e-02,
          9.84867811e-02, 6.55492097e-02, -7.91730881e-02,
          -3.58940475e-02, -3.22993249e-02, 6.93642870e-02,
          1.28878459e-01, -8.74375850e-02, -2.86060069e-02,
          -2.19200514e-02, -5.15424013e-02 ]
      - [ 5.67522384e-02, 2.21758820e-02, -5.16191460e-02,
          -3.88701633e-02, 5.76740177e-03, -6.09791763e-02,
          3.30881253e-02, 2.58981317e-01, -7.14634061e-02,
          -7.56384879e-02, -2.19109822e-02, -3.19898762e-02,
          2.52292734e-02, 2.11840421e-02, -2.82030851e-02,
          -2.63713617e-02, -6.51031286e-02, 5.64278178e-02,
          1.40157891e-02, -1.08318077e-02, 2.56130379e-03,
          -4.92064357e-02, 1.46435471e-02, -1.37297586e-02,
          7.98253417e-02, -8.19534883e-02, 4.63982224e-02,
          9.03479978e-02, -3.19632627e-02, 5.87777421e-02,
          9.56880394e-03, 3.43674608e-02, -2.32891124e-02,
          -4.58921306e-03, 9.25235972e-02, 1.04730196e-01,
          9.00565460e-02, 9.07303020e-02, -3.58187743e-02,
          5.10797417e-03, -2.71351337e-02, -7.07999319e-02,
          -1.17392898e-01, 7.07860589e-02, -3.65040894e-03,
          6.32222742e-02, 9.39289033e-02, 8.70243013e-02, 1.30066052e-01,
          9.85378399e-02 ]
      - [ 3.16927023e-02, -4.95190807e-02, -6.60901219e-02,
          7.24808201e-02, 5.27376011e-02, -2.63034366e-02,
          -1.47751439e-02, 8.19846466e-02, -1.03485920e-01,
          -1.76158305e-02, 5.79337701e-02, 2.53043454e-02,
          -6.58711046e-02, -1.11615919e-01, -9.03430209e-02,
          7.66785741e-02, -2.18372326e-02, 2.21975092e-02,
          -2.07189433e-02, 4.70586121e-02, -7.30720386e-02,
          1.00946851e-01, 4.52637207e-03, -2.08037049e-02,
          8.28252658e-02, -1.17146082e-01, -1.32764587e-02,
          2.18793307e-03, -1.94076262e-02, 2.96178032e-02,
          2.97949519e-02, -5.77742718e-02, -1.71077028e-01,
          -4.90945317e-02, -2.61864495e-02, 7.77401030e-02,
          -1.20205712e-02, -1.33322813e-02, -2.12101892e-01,
          -7.78465196e-02, -1.75483897e-02, -9.48822051e-02,
          -6.86387271e-02, -2.76515912e-02, -7.94014186e-02,
          -1.86623614e-02, 4.47067805e-02, 3.46234776e-02,
          1.13827258e-01, 4.00370592e-03 ]
      - [ -2.39609703e-02, -1.53258359e-02, -5.84670082e-02,
          -2.69011110e-02, -7.07663968e-02, -1.30198047e-01,
          -5.78368865e-02, 1.87292382e-01, -1.11227907e-01,
          3.61230969e-02, 6.54591620e-02, -5.48937209e-02,
          -1.20800078e-01, 1.08967461e-02, -1.02861643e-01,
          3.64088155e-02, 7.51846060e-02, -4.39235307e-02,
          -4.76658940e-02, 7.14815557e-02, -1.77743435e-02,
          1.14293341e-02, -7.54287317e-02, 9.36828256e-02,
          4.10775989e-02, -1.50686622e-01, 2.80105639e-02,
          2.26425901e-02, -9.16866362e-02, 1.55285165e-01,
          -3.95109318e-03, -3.46606933e-02, -8.95143822e-02,
          -1.87419988e-02, -4.35517542e-02, 6.07922040e-02,
          -1.68567859e-02, -7.91698322e-02, -6.97056279e-02,
          -1.73589010e-02, -1.04334168e-01, -8.06579366e-02,
          -4.43116538e-02, 7.02655017e-02, 2.70493655e-03,
          1.08866077e-02, 3.72186191e-02, -5.73059451e-03,
          1.93447117e-02, 3.31924446e-02 ]
      - [ -7.36980438e-02, -7.49118403e-02, -9.44455639e-02,
          -5.27187251e-02, -8.86263549e-02, -5.07592745e-02,
          -3.66687328e-02, -5.05599054e-03, -1.00314118e-01,
          -3.68286557e-02, -6.73811734e-02, -1.87489223e-02,
          -5.98388864e-03, -2.68510357e-02, -3.92310880e-02,
          -8.36606398e-02, 5.90662844e-02, -2.13421136e-02,
          1.36636764e-01, 1.01056270e-01, -1.32820383e-01,
          8.28328263e-03, -6.73245490e-02, 8.04967359e-02,
          2.17996258e-02, 6.21609874e-02, 2.54699923e-02,
          -9.56759090e-04, -9.23012272e-02, 1.76819548e-01,
          9.68614146e-02, -2.53107071e-01, -1.22626275e-01,
          1.57927070e-02, -3.38557661e-02, -2.55960543e-02,
          -9.06737242e-03, -8.64810795e-02, -2.52410650e-01,
          -1.38376513e-02, -7.57059529e-02, -1.69598430e-01,
          -1.71111703e-01, 4.99672815e-02, -1.31422624e-01,
          -7.39875734e-02, 5.06569445e-02, 9.17479116e-03,
          1.05011068e-01, -5.33694699e-02 ]
      - [ -1.51444167e-01, -2.19724849e-02, -4.02462669e-02,
          -6.22272026e-03, -1.57731995e-02, -1.17830276e-01,
          -2.97847688e-02, 1.21493645e-01, -4.30307947e-02,
          -1.11471504e-01, 1.17866732e-01, 7.49956444e-02,
          -9.73944813e-02, -1.05424970e-01, -5.03446907e-02,
          -2.36591715e-02, 4.74083312e-02, -1.08271472e-01,
          3.98348644e-02, 2.03629844e-02, -5.29929474e-02,
          -1.63280461e-02, 4.15823869e-02, 8.95398855e-02,
          -6.66056722e-02, -3.49653848e-02, -4.52428274e-02,
          5.32568172e-02, -1.47635445e-01, 7.76284784e-02,
          -1.69050153e-02, -1.20798521e-01, -1.17605969e-01,
          -4.33572195e-02, -9.98664740e-03, -6.48518354e-02,
          1.10084107e-02, -1.64606318e-01, -1.02027297e-01,
          -4.50837463e-02, -4.89090942e-02, -6.97192177e-02,
          -1.10473268e-01, 8.48024860e-02, -1.20505318e-01,
          -1.01192417e-02, 9.96188447e-02, 3.79601866e-02,
          9.43177119e-02, 3.49397250e-02 ]
      - [ -1.28068924e-02, -7.68881217e-02, -4.68727350e-02,
          -4.82132286e-02, 2.55192947e-02, -3.02992940e-01,
          -7.98641145e-02, 2.31737539e-01, -1.77449360e-01,
          -1.10107996e-01, 2.41275981e-01, 3.27504892e-03,
          -1.71738029e-01, -1.58143535e-01, 5.26812719e-03,
          -3.23531814e-02, -1.11899368e-01, -9.98161808e-02,
          -1.94523886e-01, -4.86684730e-03, 4.29270342e-02,
          9.11722481e-02, -1.57254387e-03, -3.69050764e-02,
          5.24171107e-02, -1.80821881e-01, 3.45506705e-02,
          3.75960134e-02, -1.24483265e-01, 1.41156584e-01,
          6.28345236e-02, -3.00554894e-02, -4.87601273e-02,
          -9.42606404e-02, -1.20589063e-01, 1.06331185e-01,
          7.54862204e-02, -6.89789513e-03, -1.59188196e-01,
          2.13275943e-03, -2.19015554e-02, -1.49716496e-01,
          -1.34619132e-01, 1.05032228e-01, 1.34522930e-01,
          3.36911827e-02, -8.96407943e-03, 7.66779631e-02,
          8.48375782e-02, 5.59768192e-02 ]
      - [ -1.22583061e-01, -2.18564756e-02, 8.02208334e-02,
          9.53168869e-02, 6.19865991e-02, -8.24970976e-02,
          -1.14949360e-01, 1.75104395e-01, -3.22633982e-01,
          7.31662335e-03, 1.23227917e-01, -3.44459228e-02,
          -2.45334059e-01, 5.77920228e-02, 1.02795521e-03,
          -2.73373395e-01, 7.31619969e-02, -9.98229310e-02,
          -2.32795477e-02, 1.36777386e-01, -4.05993313e-02,
          1.37964502e-01, -1.38736824e-02, 1.05221473e-01,
          2.90250838e-01, -3.90740298e-02, -6.21412769e-02,
          1.38368607e-01, -7.91752040e-02, 2.53836364e-01,
          1.67644132e-04, -7.07689971e-02, -6.34107813e-02,
          -1.98241830e-01, 6.62866905e-02, 1.27402186e-01,
          -1.20081373e-01, -1.47301361e-01, -1.35822833e-01,
          9.00964737e-02, 6.08450696e-02, -3.69859457e-01,
          -2.26198852e-01, 9.70694795e-02, -9.70367566e-02,
          3.14525068e-02, 3.91357422e-01, 4.77235094e-02,
          -1.07226660e-03, -3.19747448e-01 ]
      - [ -1.01052620e-01, -2.87770536e-02, 1.18632473e-01,
          -1.44345146e-02, 4.84725311e-02, -7.74854124e-02,
          -9.79400054e-02, 1.90830961e-01, -1.68665498e-01,
          -1.61775023e-01, 1.49634942e-01, -7.22574145e-02,
          -7.33355200e-03, -3.09469420e-02, -9.73250568e-02,
          3.46762948e-02, 1.14613054e-02, -7.71011636e-02,
          -4.66057248e-02, 7.67016634e-02, -6.47536591e-02,
          -1.65304869e-01, -2.14490462e-02, -1.71429757e-02,
          -8.59185532e-02, -1.28091514e-01, -3.57925915e-03,
          8.21933821e-02, -9.31639522e-02, 1.00899138e-01,
          7.42791668e-02, -6.56275377e-02, -1.30782023e-01,
          5.82866091e-03, -1.34152442e-01, 6.55722469e-02,
          6.20543100e-02, 1.35265542e-02, -1.63841113e-01,
          9.44933146e-02, -1.41185112e-02, -4.87692431e-02,
          -7.26399124e-02, 1.15650870e-01, -2.08450202e-03,
          -6.21721596e-02, -1.02490671e-02, 7.91813731e-02,
          5.40934987e-02, 1.53585136e-01 ]
      - [ -7.23005682e-02, -7.39149004e-02, 2.84963492e-02,
          4.82622497e-02, 4.81279130e-04, -1.28818482e-01,
          -6.68531135e-02, 9.65584219e-02, -5.65264747e-02,
          -1.05884902e-01, 8.97829756e-02, -3.09648663e-02,
          -1.01193272e-01, -9.69202518e-02, -9.68162492e-02,
          2.69463211e-02, -2.31735148e-02, -4.53127511e-02,
          1.75504610e-02, 4.18954268e-02, -5.38963079e-02,
          2.31473949e-02, -3.61069553e-02, -5.19032532e-04,
          1.71644532e-03, -9.11822245e-02, 1.76152447e-03,
          2.28084102e-02, 8.64501856e-03, 1.15847431e-01, 5.79070225e-02,
          -6.99161291e-02, 4.57633436e-02, -1.01581356e-03,
          7.01540709e-02, -1.84724405e-02, -1.25347879e-02,
          -1.27352819e-01, -8.04045647e-02, -9.00132060e-02,
          -1.35312257e-02, -8.38862360e-02, -6.33536652e-02,
          6.18841462e-02, -1.14560306e-01, 5.50973276e-03,
          -4.59894948e-02, 2.09686272e-02, 1.03471771e-01,
          -1.22243050e-03 ]
      - [ -3.17249671e-02, 1.04567111e-02, -1.00532711e-01,
          9.28154308e-03, 6.91770911e-02, -7.63895512e-02,
          -2.77949572e-02, 7.11831599e-02, -4.36423756e-02,
          -2.52017751e-02, 2.66206767e-02, -6.63947463e-02,
          -7.37700909e-02, -3.73643152e-02, 3.10191177e-02,
          1.18873562e-04, 2.26874277e-01, -1.10523636e-03,
          -5.24011999e-02, 4.25978452e-02, -4.36480232e-02,
          -3.27313244e-02, -2.98895650e-02, 3.82729527e-03,
          6.33633556e-03, -6.67216163e-03, -1.62673593e-02,
          9.04264227e-02, -5.52950203e-02, 1.17381066e-01,
          5.94398640e-02, 3.19912769e-02, -6.65993690e-02,
          -2.46550180e-02, 2.35365126e-02, -2.27849092e-02,
          5.90845421e-02, -9.42922849e-03, -7.67264888e-02,
          -6.39884621e-02, -1.49023365e-02, -7.15130270e-02,
          -1.17169894e-01, 7.62632638e-02, -4.66732979e-02,
          -6.20205849e-02, 9.87719744e-02, 5.49664758e-02,
          5.78385778e-02, 1.30026834e-02 ]
      - [ -1.93216298e-02, 1.10719368e-01, -9.04529765e-02,
          6.49675876e-02, -1.32346019e-01, -2.81465594e-02,
          6.87278360e-02, 7.26966038e-02, 9.72381085e-02,
          -3.09478462e-01, -1.22596875e-01, -5.92436418e-02,
          -3.26899104e-02, -1.43579347e-02, -1.95184335e-01,
          1.78724080e-01, -4.35516611e-02, 7.70122260e-02,
          1.09672491e-02, -2.73727626e-02, -5.11493534e-02,
          1.68369412e-01, 1.24352306e-01, -6.52493164e-02,
          1.81247383e-01, -8.02098662e-02, 7.41868615e-02,
          1.59511492e-01, -3.01503122e-01, -2.91486625e-02,
          1.44203320e-01, -5.83600998e-02, -2.09138930e-01,
          4.48499247e-02, -5.48367016e-02, 1.73626900e-01,
          -2.24012565e-02, 1.64602026e-02, -1.21221952e-01,
          -1.35782897e-01, 6.96740523e-02, -1.05962530e-01,
          9.04059038e-02, 2.66608208e-01, -8.85967463e-02,
          -4.90167402e-02, 1.95310023e-02, 8.30845237e-02,
          2.70216376e-01, -1.73402563e-01 ]
      - [ -1.66867331e-01, 7.09255263e-02, -1.37643650e-01,
          -2.53705531e-02, 9.55479965e-03, -1.85923383e-01,
          5.68585144e-03, 2.78535306e-01, -8.37165341e-02,
          -1.49508640e-01, 1.35055095e-01, -6.05011731e-02,
          8.53896588e-02, -1.07060388e-01, -2.20326595e-02,
          -1.04840569e-01, 1.35157898e-01, 8.53326395e-02,
          1.02265365e-01, 1.33300915e-01, -2.97054276e-02,
          -8.07542801e-02, 3.22461836e-02, 2.30850205e-01,
          1.19554088e-01, -1.21384598e-01, -5.25872819e-02,
          1.71850633e-03, -4.08930257e-02, 3.38226184e-02,
          1.63209930e-01, 3.60867493e-02, -2.44960979e-01,
          -7.37438351e-02, 4.18805294e-02, 1.03462256e-01,
          5.70785664e-02, -1.17432840e-01, -1.43751979e-01,
          8.45578220e-03, -7.99561441e-02, -8.78081992e-02,
          -2.25515917e-01, 2.67113358e-01, 7.78647289e-02,
          1.88687500e-02, 7.42952973e-02, 3.24499607e-02, 2.65200790e-02,
          -2.45157871e-02 ]
      - [ -1.79656856e-02, 1.56758979e-01, 1.07296973e-01,
          8.62855837e-02, 8.51118788e-02, -8.61990675e-02,
          -1.54325873e-01, 2.99645901e-01, 2.15981808e-02,
          -1.16953872e-01, 8.16080645e-02, 6.94241794e-03,
          1.92102179e-01, -1.74450949e-01, -4.56009097e-02,
          -4.95597050e-02, -7.54148117e-04, 9.72186774e-02,
          1.19466461e-01, -9.55338404e-02, 2.65464298e-02,
          8.81012063e-03, 2.72816390e-01, 4.71870862e-02, 7.10605532e-02,
          -1.15618996e-01, -4.18452825e-03, 1.19326621e-01,
          1.32423816e-02, 5.34837060e-02, 3.01878881e-02,
          -1.32500082e-01, -2.88440764e-01, 7.70611987e-02,
          8.18098113e-02, 2.43921541e-02, -1.35486439e-01,
          -1.23114198e-01, -2.99027026e-01, -1.34355709e-01,
          -7.83734545e-02, -9.93793309e-02, 8.25963542e-03,
          1.69725567e-02, -1.00329287e-01, -1.39198243e-03,
          8.07410702e-02, 5.43085374e-02, 8.95976350e-02,
          -2.22143892e-04 ]
      - [ -1.94504321e-01, -5.38597330e-02, -3.42262909e-02,
          -5.96964061e-02, 2.65844595e-02, -1.07729159e-01,
          -7.87341893e-02, 1.12340897e-01, -1.53010994e-01,
          1.21041454e-01, 4.49614711e-02, -1.17528655e-01,
          -4.50020246e-02, 7.15567842e-02, -6.90268427e-02,
          3.13673504e-02, 1.13119565e-01, -1.88809615e-02,
          1.58112839e-01, 1.82694606e-02, 1.90986842e-02, 4.07642201e-02,
          7.30195865e-02, 3.59479524e-02, 2.27090195e-02,
          -1.08666919e-01, -1.07909314e-01, 7.00794160e-02,
          -4.04120795e-03, 1.32471114e-01, 7.97661841e-02,
          7.93697685e-03, -1.75922245e-01, -9.12578702e-02,
          -1.74200628e-02, 7.64460638e-02, 4.91225917e-04,
          -9.69411582e-02, -5.01122624e-02, -7.59719461e-02,
          1.24904113e-02, -1.60289347e-01, -7.47623444e-02,
          9.80924815e-02, -1.10508166e-02, -1.20921154e-02,
          1.47273680e-02, 1.54047459e-01, 2.91874800e-02, 1.21959643e-02 ]
      - [ -7.29486421e-02, -1.55813796e-02, -1.97359361e-03,
          2.33320687e-02, 1.54596353e-02, -8.25058296e-02,
          -4.64415699e-02, 8.34243000e-02, -1.95417050e-02,
          -8.14174637e-02, 1.61454082e-02, -1.71505585e-02,
          2.18154360e-02, -4.35884185e-02, -5.99268004e-02,
          -8.17049742e-02, -2.44781524e-02, -3.16032916e-02,
          3.08696255e-02, 2.23942623e-02, -3.36605981e-02,
          1.42799309e-02, 3.59010547e-02, 1.04422355e-02, 2.77990643e-02,
          1.33068701e-02, 6.68646628e-03, 5.49380435e-03,
          -7.28904828e-02, 2.54909080e-02, 4.50310856e-02,
          -8.10097530e-02, -9.33855921e-02, -4.91548590e-02,
          4.41341326e-02, -5.88663928e-02, 1.16925716e-01,
          -7.21793249e-02, -2.57153474e-02, -8.05377066e-02,
          -5.03560416e-02, -5.28932139e-02, -6.40122294e-02,
          3.57599258e-02, 6.11522840e-03, -5.29758725e-03,
          2.17508525e-02, 3.41257676e-02, 5.00716455e-02,
          -1.64532512e-02 ]
      - [ 3.93983349e-02, -5.12023754e-02, -9.48512107e-02,
          -6.36372939e-02, -4.40478139e-02, -1.29941106e-01,
          -1.08888164e-01, 7.47709870e-02, 7.56766349e-02,
          -6.22463822e-02, 1.81925930e-02, 7.22243562e-02,
          -2.91739136e-01, -7.14649409e-02, -1.22005336e-01,
          -4.86520156e-02, -5.18001057e-02, -1.20594032e-01,
          1.26723051e-01, 2.98908856e-02, -5.68150356e-02,
          4.60730959e-03, 6.38027191e-02, 2.09628046e-02, 4.82338145e-02,
          -1.71470210e-01, 5.20332903e-02, -1.60939664e-01,
          -8.44299942e-02, 2.76989877e-01, 2.55129468e-02,
          -7.26666003e-02, -8.16772729e-02, -2.10940316e-01,
          7.52414465e-02, 7.19344988e-02, 1.84442326e-02,
          -9.13225040e-02, -2.42793515e-01, -1.19036669e-02,
          -7.11941943e-02, -1.03624023e-01, -2.07325891e-01,
          1.00381017e-01, -1.85732871e-01, 1.28429756e-01,
          -1.35477141e-01, -1.10059623e-02, 1.37767956e-01,
          -6.24504499e-02 ]
      - [ -1.06544688e-01, 3.60974185e-02, -2.77387686e-02,
          5.18598706e-02, -3.43837552e-02, -6.50765821e-02,
          -2.73126103e-02, 1.01948678e-01, -7.82496184e-02,
          5.05751520e-02, 8.21072385e-02, -1.00769259e-01,
          -8.54953378e-03, 4.17598002e-02, -1.06149629e-01,
          5.90059645e-02, 3.13709192e-02, -2.41399501e-02,
          -1.52855972e-02, -3.79019720e-03, -1.07539527e-01,
          -3.65952365e-02, 1.36165414e-02, -1.73675075e-01,
          4.62838188e-02, 4.30579577e-03, 3.97055112e-02, 1.36188164e-01,
          1.55164758e-02, -3.86464112e-02, 1.99186839e-02,
          -6.75260797e-02, -2.85094585e-02, -1.09077068e-02,
          -7.54853245e-03, 2.68457159e-02, 3.01009156e-02,
          -1.38468593e-01, -1.46159545e-01, 2.21046247e-02,
          6.54546171e-02, -7.62662515e-02, -9.32355896e-02,
          -3.72092165e-02, -3.33536454e-02, -9.57300290e-02,
          1.39579251e-01, 4.07780707e-02, 9.08952132e-02, 9.98523012e-02 ]
      - [ -8.84624720e-02, 1.16787506e-02, -2.79348809e-02,
          -1.29139312e-02, 6.25737980e-02, -1.11666024e-01,
          -6.50761425e-02, 1.20021567e-01, -1.82043612e-01,
          -9.11615640e-02, 1.27647594e-01, -5.80821298e-02,
          -1.11337109e-02, -4.18020189e-02, -8.31878781e-02,
          2.65590176e-02, 5.08541539e-02, -5.29120602e-02,
          -7.15345144e-02, 2.38644723e-02, -6.30679056e-02,
          4.79257293e-02, -6.12742687e-03, 6.72105029e-02,
          2.12711468e-02, -1.07945286e-01, -4.18909378e-02,
          5.74451201e-02, -7.42669329e-02, 3.77371833e-02,
          3.34340334e-02, 2.43419986e-02, -9.17189866e-02,
          -7.04422817e-02, -3.78162190e-02, 4.42923829e-02,
          1.84774282e-03, -5.50416969e-02, -1.06966093e-01,
          1.55985514e-02, 5.80111668e-02, -7.57661536e-02,
          -1.36347152e-02, 1.45299928e-02, -3.51595394e-02,
          -3.90807836e-04, 4.34479341e-02, 3.17862704e-02,
          4.64130339e-04, 6.20633587e-02 ]
      - [ -1.63623244e-01, 9.76263285e-02, 6.83102384e-02,
          1.07808935e-03, 3.93807739e-02, 5.98451383e-02,
          -9.60382074e-02, 2.03921542e-01, 1.39017388e-01,
          -1.09385721e-01, 4.78735529e-02, 4.98035736e-02,
          1.91233963e-01, -3.10587380e-02, -2.66894475e-02,
          -2.67169066e-02, -1.08099893e-01, 1.03354253e-01,
          -1.09944567e-01, -9.27982293e-03, 1.81844741e-01,
          -7.24235252e-02, 1.34113044e-01, 1.79039881e-01,
          -1.09652113e-02, 1.06727622e-01, -9.49393883e-02,
          1.10731758e-01, -1.59388855e-01, -5.85837662e-03,
          -6.96332077e-04, -4.69195135e-02, -2.38320112e-01,
          -6.24584146e-02, -1.83955505e-02, -8.13518837e-02,
          -7.12705124e-03, -1.90172624e-02, 1.12251200e-01,
          -5.31020351e-02, -6.86954930e-02, -4.68093110e-03,
          -3.39810597e-03, 1.59402817e-01, 1.30556583e-01,
          -2.09571123e-02, 2.04535369e-02, 1.16480246e-01,
          2.56987754e-04, -3.49864177e-02 ]
      - [ 7.78763974e-03, 1.40684366e-01, 1.80752739e-01,
          -9.95092746e-03, -2.61390712e-02, -1.45906523e-01,
          -1.57307059e-01, 2.50067681e-01, 5.51742949e-02,
          -2.34912544e-01, 4.00532298e-02, -1.58513010e-01,
          8.53340998e-02, -9.46080014e-02, 5.43763414e-02,
          -5.03773876e-02, -6.20933585e-02, 1.44714713e-02,
          3.37536144e-03, -1.20181125e-02, -1.58208340e-01,
          4.29010391e-02, 7.39032626e-02, 5.73957413e-02, 1.35312304e-01,
          -2.44018689e-01, 2.98911594e-02, 2.25353345e-01,
          -1.76371962e-01, 5.83981723e-03, 5.14253154e-02,
          2.64026970e-03, -5.54145098e-01, -1.23110749e-02,
          1.06990539e-01, 9.07657444e-02, -1.36992887e-01,
          1.07952788e-01, -9.92247537e-02, -3.64070584e-04,
          -8.72113630e-02, -1.22042231e-01, 4.10675555e-02,
          9.57866013e-02, 4.32639234e-02, 3.47332023e-02, 9.63966921e-02,
          1.67738393e-01, 2.09646612e-01, 2.19063759e-02 ]
      - [ -3.47036660e-01, -7.91763291e-02, -7.15876976e-03,
          2.27871463e-01, 6.85367361e-02, -4.24410440e-02,
          -8.79419297e-02, 1.50453985e-01, -6.63384050e-02,
          6.30435022e-03, 6.23095706e-02, -7.85666183e-02,
          -1.24706998e-02, 1.25140846e-02, -1.53789312e-01,
          -3.08226310e-02, 1.15397543e-01, 7.56782666e-02,
          6.64137602e-02, 2.03393519e-01, 8.53772581e-05, 9.05539840e-03,
          -3.90665904e-02, -1.57324120e-01, -1.52389135e-03,
          7.28845373e-02, 1.84249114e-02, 1.17126867e-01, 4.00294587e-02,
          7.99998567e-02, 7.11595491e-02, 2.87613627e-02,
          -1.74101945e-02, -7.92144686e-02, -4.34594862e-02,
          -1.21207483e-01, 1.32643819e-01, -7.65322521e-02,
          -6.65042251e-02, -2.44582221e-02, -1.19107813e-01,
          -1.08151853e-01, -2.12322980e-01, 1.24735102e-01,
          1.26753330e-01, -6.70843795e-02, 1.69680998e-01,
          1.23505667e-02, -5.66322962e-03, -2.68900041e-02 ]
      - [ -2.78156400e-02, 2.38035973e-02, -6.18194379e-02,
          -7.62838777e-03, 2.57665459e-02, 1.86993834e-02,
          -1.23596452e-02, 1.27385691e-01, -1.09643571e-01,
          1.37990527e-02, 5.06135784e-02, 2.05920674e-02,
          -1.21663855e-02, -9.90892127e-02, -1.05412878e-01,
          7.95685649e-02, 1.10513428e-02, -2.78037358e-02,
          1.84924051e-01, 2.45795716e-02, 2.61535272e-02,
          -2.36508753e-02, -6.57803044e-02, 3.68222818e-02,
          1.43888947e-02, -9.52144340e-02, 4.37496509e-03,
          7.09134946e-03, -4.24103178e-02, 1.22014754e-01,
          6.46957429e-03, -2.09895591e-03, -8.98159593e-02,
          -8.60855207e-02, -8.76666047e-03, 6.68644309e-02,
          -5.14889210e-02, -5.64725325e-02, -2.18274504e-01,
          -3.23726907e-02, -1.29129421e-02, -9.39627886e-02,
          -1.60147846e-01, 5.25327735e-02, -9.86391902e-02,
          -1.37364678e-02, 7.67830908e-02, 1.80087201e-02,
          1.42650887e-01, 3.93419676e-02 ]
      - [ -6.37819022e-02, -4.22501080e-02, -1.67041257e-01,
          2.38595139e-02, -5.13842441e-02, -6.38204962e-02,
          -9.06995609e-02, -6.44248724e-02, -1.75696746e-01,
          -1.49914682e-01, -1.22999907e-01, 2.97081992e-02,
          9.12820473e-02, -4.39719111e-02, -9.09537226e-02,
          -6.38770461e-02, 9.85597745e-02, 5.15149161e-02,
          4.12190035e-02, 1.38831764e-01, -7.21772388e-02,
          1.80040047e-01, -1.48141235e-02, -3.28149535e-02,
          1.40986042e-02, -1.17374741e-01, 2.15097684e-02,
          8.17174613e-02, -1.44632990e-02, 1.29060075e-01,
          3.05051208e-02, -1.67503059e-01, -1.36443645e-01,
          6.81876438e-03, 1.86668858e-01, -5.17775789e-02,
          7.20183179e-02, -1.82978529e-02, -2.21388519e-01,
          -2.89049726e-02, -3.87571268e-02, -1.41306400e-01,
          -8.74606371e-02, 1.64082795e-02, 8.54399428e-02,
          -5.13066575e-02, -5.63958138e-02, 7.29292631e-02,
          9.23504829e-02, -1.97312608e-02 ]
      - [ 1.22416906e-01, -1.50413930e-01, 2.20957994e-02,
          1.82084396e-01, -6.74609989e-02, -4.93127629e-02,
          -1.85709700e-01, -2.68409643e-02, -1.24422513e-01,
          1.32731032e-02, 5.65907471e-02, -3.58435139e-02,
          1.20233044e-01, 4.14881948e-03, -2.33354960e-02,
          -1.00939497e-01, -1.17292590e-01, 1.49827441e-02,
          8.29089880e-02, 2.34455705e-01, -5.61971292e-02,
          4.14813980e-02, 1.00409389e-01, -2.21580774e-01,
          -2.62546726e-02, -2.52568698e-03, 1.22043543e-01,
          5.74873537e-02, 4.31545712e-02, -4.87369671e-02,
          -3.30713601e-03, 6.43116310e-02, 7.45527744e-02,
          5.92876747e-02, 8.03606119e-03, 8.42954740e-02,
          -7.54951090e-02, 8.90881345e-02, 4.54230607e-02,
          2.05819812e-02, 8.65047274e-04, 6.00938201e-02, 4.28882092e-02,
          -1.97075959e-02, -1.82425141e-01, -7.94280320e-02,
          1.09089911e-01, -1.03339739e-01, 5.83441071e-02,
          -3.14127021e-02 ]
      - [ 1.79147929e-01, -1.02456242e-01, 7.67238364e-02,
          1.78343967e-01, -1.07188098e-01, 6.81780512e-03,
          8.37212652e-02, -1.01807535e-01, -8.63872468e-02,
          -1.48129798e-02, 1.05648227e-01, 2.18264714e-01,
          1.35178089e-01, 1.36715665e-01, -1.46834264e-02,
          4.27873470e-02, -9.92673337e-02, -1.93957776e-01,
          1.10655934e-01, -6.43160194e-02, 1.23652920e-01,
          8.49629641e-02, -2.27483153e-01, 1.98226675e-01,
          -5.62098734e-02, -2.17858806e-01, -1.58299357e-01,
          -1.95058919e-02, 3.37633677e-02, -2.07119688e-01,
          -1.06557153e-01, -1.05748557e-01, 6.42029196e-02,
          4.44701128e-02, -2.78106425e-02, 1.95608482e-01,
          2.40158573e-01, 1.85655013e-01, 6.20160550e-02, 5.44762872e-02,
          1.10059075e-01, 3.11664551e-01, -1.15905143e-01,
          -1.05746061e-01, -2.47128189e-01, -1.73661530e-01,
          2.08904967e-01, 1.81280822e-01, -6.76299855e-02,
          1.12927996e-01 ]
      - [ 6.43466040e-02, 1.69040877e-02, 2.10332777e-02, 1.53957218e-01,
          -4.85838503e-02, 2.18217820e-02, 6.54016659e-02,
          -7.80875012e-02, -4.53171656e-02, 3.17010991e-02,
          1.08761564e-02, 5.20983860e-02, 4.69989441e-02,
          -2.43031122e-02, 7.91458115e-02, -1.48932787e-03,
          -8.86418521e-02, -1.41358554e-01, 8.13592076e-02,
          6.46928772e-02, 9.60933343e-02, 9.11908522e-02,
          -4.54747081e-02, -9.43557769e-02, 6.67791162e-03,
          -1.05994008e-01, 3.27481069e-02, -2.58822064e-03,
          -6.36429563e-02, -2.44220924e-02, -4.98032011e-02,
          2.40844619e-02, -8.28066003e-03, 2.70901602e-02,
          -1.69558674e-02, 2.41408527e-01, 2.38897055e-02,
          -4.63775396e-02, 1.18921055e-02, -5.49751893e-03,
          3.78463119e-02, -8.70788321e-02, -1.46098003e-01,
          -1.46392480e-01, -2.80823052e-01, -7.10400715e-02,
          1.71071384e-03, 8.86961147e-02, 5.78134954e-02,
          -4.40535359e-02 ]
      - [ -1.09938443e-01, -8.14393908e-02, 2.64348928e-02,
          -4.54738811e-02, -5.48160188e-02, 1.14689507e-01,
          1.01643819e-02, 9.96670593e-03, -6.79292977e-02,
          -5.72197549e-02, -6.51965616e-03, 1.20845914e-01,
          -3.25823277e-02, -5.28875664e-02, 1.54391393e-01,
          3.73079590e-02, -6.42995313e-02, -2.29448527e-02,
          -2.09261961e-02, 1.47475675e-01, -4.96626385e-02,
          1.65250704e-01, -7.55306855e-02, -1.50421187e-01,
          -1.17507752e-03, -6.73113167e-02, 3.98612916e-02,
          2.18283162e-01, 9.65470299e-02, -8.69159475e-02,
          -5.58903478e-02, -2.27200184e-02, 1.10788345e-01,
          6.49615377e-02, -3.62261236e-02, 1.39863953e-01,
          -4.43764357e-03, -9.50308442e-02, -1.55854328e-02,
          -2.49432679e-03, 4.29850034e-02, 1.13931827e-01,
          -2.23653782e-02, 1.34887114e-01, -1.76596493e-01,
          9.16207284e-02, -1.25010192e-01, -7.19197243e-02,
          2.48286556e-02, -7.90169183e-03 ]
      - [ -1.33307688e-02, 5.83554469e-02, 7.80874863e-02,
          3.43211889e-02, -4.14078012e-02, 9.39237922e-02,
          2.03528255e-01, 1.99875519e-01, -2.03891426e-01,
          -6.18996918e-02, -2.07692180e-02, 8.24368894e-02,
          -5.49306497e-02, -1.21275291e-01, -1.23871960e-01,
          -3.32888067e-02, -1.80387683e-02, 2.32780129e-01,
          -6.70210496e-02, -1.02645509e-01, 1.19551860e-01,
          2.35982597e-01, -2.46347487e-01, 7.44963065e-02,
          -1.96094617e-01, -6.96568713e-02, 2.26360127e-01,
          4.19058502e-01, 3.33416499e-02, 1.01722181e-01,
          -3.22602093e-02, -7.79710058e-03, 1.12131819e-01,
          7.01071545e-02, 8.60398263e-02, -2.37244397e-01,
          -9.96235684e-02, -5.50502688e-02, 6.72282651e-02,
          -3.24683748e-02, 9.82015207e-02, 1.93275824e-01,
          -1.92877278e-01, -4.68914546e-02, -4.48937237e-01,
          1.88702077e-01, 4.73189950e-02, 1.12557009e-01, 2.92755533e-02,
          -9.30285174e-03 ]
      - [ 2.81112455e-03, 3.61704342e-02, 4.02036905e-02,
          -1.33177601e-02, 6.95348112e-03, 1.09789126e-01,
          1.45407334e-01, -8.78935158e-02, 1.92227412e-03,
          3.42895925e-01, -3.48263271e-02, -2.30276138e-02,
          -2.61805151e-02, -3.32924388e-02, -3.32297981e-02,
          4.20742221e-02, -1.09852210e-01, -2.35100463e-01,
          1.00333437e-01, 1.45143688e-01, 3.93377170e-02, 1.61902890e-01,
          -9.12078321e-02, -1.30482808e-01, -2.22911209e-01,
          -1.13915876e-01, 7.31334612e-02, 1.99149087e-01,
          -2.86229011e-02, -2.07476959e-01, 6.92108348e-02,
          2.01485053e-01, 1.97803006e-01, 9.17302817e-02, 7.77942687e-02,
          1.43210277e-01, -1.69652700e-01, -6.78285733e-02,
          -4.97900024e-02, -1.41134754e-01, 5.11594601e-02,
          -8.94180536e-02, -1.91445604e-01, -1.30913809e-01,
          -4.59573358e-01, -4.16700682e-03, -2.54166722e-02,
          9.22074318e-02, -4.19350341e-02, 1.61771163e-01 ]
      - [ -1.94292769e-01, -2.26433262e-01, 3.75746712e-02,
          7.64656663e-02, -9.65481699e-02, 2.51380533e-01,
          -1.35886133e-01, 1.13171048e-01, -3.34109962e-02,
          1.74246222e-01, 2.31371932e-02, -1.01123780e-01,
          2.12097868e-01, -1.18822716e-01, 1.50193289e-01,
          -2.24451125e-01, -9.92152691e-02, -6.55553713e-02,
          6.43633604e-02, 7.98456147e-02, -7.96753839e-02,
          1.42727613e-01, 2.29514856e-02, 5.95865250e-02, 4.58514579e-02,
          -8.14411193e-02, 8.99963304e-02, 8.81542414e-02,
          -3.55725363e-02, -1.40884906e-01, 6.01645112e-02,
          1.62596673e-01, 6.91762194e-02, 3.16828415e-02, 5.52416295e-02,
          1.58572383e-02, 3.46331373e-02, -1.65256158e-01,
          1.09285809e-01, -1.17579997e-01, 3.83753181e-02,
          -4.34867702e-02, -1.11925751e-01, 1.20585352e-01,
          -4.95943129e-01, 1.26512796e-01, -5.85184135e-02,
          2.42855102e-01, -4.69766818e-02, -1.33404195e-01 ]
      - [ 4.87105660e-02, 2.77885497e-02, 4.92324196e-02, 3.18891853e-01,
          -9.10354033e-02, 7.34273270e-02, -5.30868508e-02,
          6.08123243e-02, -5.27524427e-02, 1.12259142e-01,
          -4.91845496e-02, 7.25137442e-02, -1.34831667e-02,
          5.15664779e-02, 1.33167510e-03, -1.29013926e-01,
          -1.81168586e-01, -2.12293863e-01, 2.76396811e-01,
          1.13797463e-01, 1.58761758e-02, 1.06833003e-01, 4.67479825e-02,
          -2.32736059e-02, -1.45464852e-01, -1.78791508e-01,
          7.25438595e-02, 4.52809930e-02, 3.29125300e-02, 1.53658343e-02,
          -4.51413803e-02, -5.24512939e-02, 1.14263184e-01,
          2.07520444e-02, -1.42165031e-02, 1.87790811e-01,
          -2.75315084e-02, -9.35561582e-02, 2.09069531e-03,
          6.27256855e-02, 1.07571617e-01, 3.39772850e-02,
          -6.67126700e-02, -1.71944895e-03, -1.35114357e-01,
          -9.63496193e-02, -6.95553944e-02, 1.69486254e-01,
          -1.01706877e-01, 8.05707201e-02 ]
      - [ -9.59469751e-02, -9.60716680e-02, -6.79640239e-03,
          4.99021634e-02, 7.69546330e-02, 8.17336068e-02, 2.77242959e-01,
          9.80427116e-02, 3.32958028e-02, -1.14287518e-01,
          -8.30906183e-02, 1.08965464e-01, 8.96478146e-02,
          -1.77766755e-02, 1.12968482e-01, 7.81571046e-02,
          -2.18844846e-01, -2.61212718e-02, -1.53717650e-02,
          -2.11551916e-02, -1.20287850e-01, -1.33425407e-02,
          1.66811168e-01, -2.65048146e-01, -9.46300849e-02,
          -9.77692157e-02, 1.03485130e-01, 2.41421666e-02,
          1.51681632e-01, -2.65112612e-02, 2.89258044e-02,
          -3.01244892e-02, 4.16325293e-02, 4.85228710e-02,
          -5.00401333e-02, 8.58367905e-02, -1.28151149e-01,
          -7.24753439e-02, 1.19261630e-01, -2.96069160e-02,
          1.82201285e-02, -6.83429316e-02, -1.32186368e-01,
          -1.32821864e-02, -2.33996481e-01, -6.67201802e-02,
          1.62455618e-01, 1.54173553e-01, -5.21799996e-02,
          -2.30638698e-01 ]
      - [ -8.99199173e-02, 4.83455742e-03, 4.74482849e-02,
          9.32454318e-02, -3.11922878e-01, 6.19550459e-02,
          5.97767793e-02, 2.13487335e-02, -4.27970625e-02,
          -3.66968401e-02, -4.52022478e-02, 1.58814609e-01,
          -2.11486652e-01, -2.40750071e-02, 4.23511922e-01,
          -2.03047514e-01, -3.24845575e-02, -1.69851854e-01,
          1.26344949e-01, 5.09709418e-02, 1.17178023e-01, 5.68208955e-02,
          1.66125938e-01, -8.97647813e-02, 3.55459712e-02,
          -1.43946618e-01, 1.37714176e-02, 8.67616907e-02,
          1.91357080e-02, -1.96893156e-01, -5.37531152e-02,
          -1.34673966e-02, 2.35874712e-01, 3.22993062e-02,
          -7.29740560e-02, 8.33551632e-04, 1.60696767e-02,
          6.39293052e-04, 2.18643218e-01, 1.13600940e-01, 2.05982234e-02,
          -6.83289021e-02, -4.42870408e-02, -1.69599757e-01,
          -2.14263394e-01, -5.66052496e-02, 1.06665142e-01,
          1.84759609e-02, -8.87649134e-03, 1.47276387e-01 ]
      - [ -6.12528659e-02, 1.60984602e-02, 2.57354174e-02,
          1.49467185e-01, -1.05868533e-01, -7.11927265e-02,
          -6.96917549e-02, -4.52353358e-02, -4.87740152e-02,
          -2.19441038e-02, -4.70227040e-02, 8.51942003e-02,
          -9.55266580e-02, -7.86847994e-02, 3.53008509e-01,
          -7.96612427e-02, -1.07087590e-01, -7.51269236e-02,
          1.66010231e-01, -1.21836131e-02, -1.05955862e-02,
          -1.39640840e-02, -4.16708365e-02, -7.12955147e-02,
          1.06249705e-01, -1.06514849e-01, -4.29398678e-02,
          -2.63245893e-03, 2.83570178e-02, -6.97117001e-02,
          8.65420997e-02, 4.79228944e-02, 8.73241276e-02, 9.82009619e-02,
          -6.12353794e-02, -3.62033509e-02, -4.86041419e-02,
          1.22533061e-01, 3.23295556e-02, 6.27651764e-03, 5.00809848e-02,
          -6.44874759e-03, -2.82966029e-02, 9.55352709e-02,
          -1.11036658e-01, 2.40549129e-02, 9.08255111e-03,
          -2.83236485e-02, -3.48107740e-02, 1.11180291e-01 ]
      - [ -2.57066786e-02, 1.29807159e-01, 3.95642109e-02,
          1.43742159e-01, -1.37836924e-02, 1.04975943e-02,
          -2.59116869e-02, 7.87495896e-02, 2.85453890e-02,
          -8.55677277e-02, -5.10052815e-02, 1.32537842e-01,
          -5.42841293e-03, 1.99705809e-02, 1.43629536e-01,
          -4.53956425e-02, 3.50621380e-02, -3.43981236e-01,
          6.97260909e-03, 7.82696754e-02, 3.64034846e-02, 1.00658879e-01,
          4.86474857e-02, -8.80759954e-03, 1.17528075e-02,
          -5.09128999e-03, -7.26305693e-02, 1.29870221e-01,
          -5.91530018e-02, -5.55046760e-02, 6.47739172e-02,
          -2.99784020e-02, 1.17614307e-01, 2.29254924e-02,
          1.38774291e-02, -6.52108043e-02, -9.40791965e-02,
          3.53376679e-02, -1.90883297e-02, 5.41014187e-02,
          7.06179440e-02, -4.38886508e-02, -7.89107978e-02,
          9.51291644e-04, -1.44941345e-01, 5.43523654e-02,
          -5.14808260e-02, -9.25527960e-02, 6.30196556e-02,
          6.95344759e-03 ]
      - [ -7.82452375e-02, 1.40440613e-01, 1.01191429e-02,
          2.03155845e-01, 7.27530792e-02, 1.71843544e-02, 1.24838091e-01,
          -9.38887373e-02, -2.15416886e-02, 1.20825671e-01,
          -2.79619303e-02, 6.40048683e-02, 2.36245375e-02,
          -1.30546212e-01, -3.34594212e-02, -2.13790834e-02,
          -8.90658870e-02, -1.55959696e-01, 6.31766841e-02,
          -3.80982831e-02, -1.54284224e-01, 3.88741889e-03,
          -4.52521145e-02, -1.44021526e-01, -7.51463175e-02,
          -1.29375279e-01, -1.14044309e-01, 3.19096749e-03,
          1.18832342e-01, -1.50012314e-01, -1.62102282e-01,
          -3.48529546e-03, 4.36251238e-02, 1.60951745e-02,
          -5.11013679e-02, 4.46063951e-02, 2.55976290e-01,
          -2.98658088e-02, 6.40470609e-02, -6.05635578e-03,
          9.47410539e-02, 1.83338165e-01, -9.38145518e-02,
          1.19488630e-02, -3.10165554e-01, 2.80055255e-02,
          -8.84203613e-02, -1.96028948e-02, -1.02367699e-01,
          2.15435605e-02 ]
      - [ -6.41265661e-02, 8.48514587e-02, 2.72150282e-02,
          -8.32711626e-03, -4.10100967e-02, 1.88901559e-01,
          1.60053253e-01, 4.95433956e-02, -4.81266575e-03,
          -1.17223561e-01, 3.07094101e-02, 2.31050439e-02,
          -1.76379293e-01, -1.21621348e-01, 1.98996350e-01,
          1.84630439e-01, -2.71502156e-02, -1.08238757e-01,
          2.57734917e-02, 1.86803132e-01, -1.56581923e-02,
          -3.72758657e-02, 7.38816857e-02, 2.30648406e-02,
          -7.81646296e-02, -1.64680704e-01, -1.66100636e-02,
          -1.69167127e-02, 4.37824465e-02, -1.12736300e-01,
          -3.73669825e-02, -1.70707109e-03, 7.69219548e-02,
          -9.27795377e-03, -3.61671820e-02, 3.10207698e-02,
          1.22602156e-03, -1.03751766e-02, -4.27497253e-02,
          2.28677085e-03, 6.80468930e-03, -1.32044200e-02,
          -6.21404238e-02, -1.72556471e-03, -2.45421305e-01,
          -1.43758312e-01, 6.88710287e-02, 5.27435401e-03,
          2.91094021e-03, 2.11360693e-01 ]
      - [ -3.75369415e-02, 1.03805013e-01, 6.41749948e-02,
          3.98633108e-02, 2.77445209e-03, 7.27560371e-02,
          -2.74806619e-02, -3.09530403e-02, 2.03228258e-02,
          2.38144860e-01, -5.01281135e-02, 9.84394401e-02,
          -1.04223259e-01, 3.88551801e-02, -4.93378900e-02,
          5.66905923e-02, 1.71046779e-01, -1.86211169e-01,
          6.28111213e-02, 6.45997748e-02, -1.85409691e-02,
          1.10084608e-01, 6.49105832e-02, -7.10821003e-02,
          -1.70043752e-01, -2.09829152e-01, -9.66731310e-02,
          2.80673448e-02, 1.65885687e-01, 9.05268490e-02,
          -5.44789992e-02, 1.02905802e-01, 2.77676642e-01,
          1.31398207e-02, 1.43654505e-02, 1.18401639e-01,
          -1.84331071e-02, -2.44412944e-02, -4.94724736e-02,
          -9.10671875e-02, 1.71433643e-01, -1.01569243e-01,
          -1.61504686e-01, 1.01034658e-03, -2.90718406e-01,
          -5.44037335e-02, -7.80761614e-02, -7.15885684e-02,
          -6.52140677e-02, 2.28160188e-01 ]
      - [ 1.50719374e-01, -1.60794348e-01, 9.76738408e-02,
          7.98876137e-02, 1.11687720e-01, -5.23514301e-03,
          -5.49823232e-02, -7.03811422e-02, 4.53162715e-02,
          8.29650685e-02, 1.29928231e-01, 1.76738590e-01,
          -1.27851054e-01, 7.86394849e-02, 2.21073970e-01,
          1.51898950e-01, -4.69764434e-02, -2.03169033e-01,
          1.82919398e-01, 1.48029655e-01, 6.95758685e-02,
          -4.37847003e-02, 5.69554511e-03, -3.03954165e-02,
          -1.31048067e-02, -1.79801121e-01, -7.37405941e-02,
          -1.32607937e-01, -1.52078429e-02, 6.93433881e-02,
          -7.83626065e-02, -3.89877148e-02, 1.71206817e-01,
          1.08013742e-01, -8.96382257e-02, 2.33501032e-01,
          9.64239389e-02, 6.90362304e-02, -3.87489423e-02,
          6.42744750e-02, 2.74203457e-02, -5.05650043e-02,
          -2.38061726e-01, 1.25319287e-01, -3.30430210e-01,
          -4.67493497e-02, 4.98509631e-02, 5.62490523e-02,
          -1.25818893e-01, 1.50369450e-01 ]
      - [ -6.26857299e-03, 1.94666386e-02, -9.08315741e-03,
          4.92912568e-02, 1.47310540e-01, 4.61901017e-02, 1.10269658e-01,
          1.00349998e-02, -6.19290546e-02, 6.81190565e-02,
          -8.71649086e-02, -8.16207975e-02, -1.60084404e-02,
          -2.61816178e-02, -1.92384943e-02, -1.33085683e-01,
          -1.14416733e-01, -2.60274112e-01, 1.69433460e-01,
          -1.44760996e-01, -4.39637117e-02, 2.83547416e-02,
          -3.07652075e-02, -5.86825833e-02, 2.51024943e-02,
          -1.05897449e-01, 1.46327212e-01, -3.68974693e-02,
          -4.41653132e-02, 2.05252077e-02, -8.70297700e-02,
          -6.43487042e-03, 1.37073332e-02, 2.25793216e-02,
          5.76301515e-02, -4.41159261e-03, -3.96374147e-03,
          -7.94893503e-02, 4.50295173e-02, 9.35823172e-02,
          1.22207895e-01, -2.37700511e-02, -6.58745021e-02,
          -5.79349846e-02, -5.40977120e-02, 2.99012452e-01,
